digraph Tree {
node [shape=box, style="filled, rounded", color="black", fontname="helvetica"] ;
edge [fontname="helvetica"] ;
0 [label="Publisher <= 548.5\ngini = 1.0\nsamples = 12448\nvalue = [1, 1, 1 ... 2, 1, 1]\nclass = MX 2002 Featuring Ricky Carmichael", fillcolor="#ffffff"] ;
1 [label="Publisher <= 23.5\ngini = 1.0\nsamples = 12106\nvalue = [1, 1, 1 ... 2, 1, 1]\nclass = MX 2002 Featuring Ricky Carmichael", fillcolor="#ffffff"] ;
0 -> 1 [labeldistance=2.5, labelangle=45, headlabel="True"] ;
2 [label="Genre <= 0.5\ngini = 0.998\nsamples = 1210\nvalue = [0, 0, 0 ... 0, 0, 1]\nclass = Phantasy Star Online Episode III: C.A.R.D. Revolution", fillcolor="#ffffff"] ;
1 -> 2 ;
3 [label="Publisher <= 6.5\ngini = 0.99\nsamples = 280\nvalue = [0, 0, 0 ... 0, 0, 0]\nclass = .hack//Outbreak Part 3", fillcolor="#ffffff"] ;
2 -> 3 ;
4 [label="Publisher <= 5.0\ngini = 0.942\nsamples = 33\nvalue = [0, 0, 0 ... 0, 0, 0]\nclass = Re-Volt", fillcolor="#fcecf4"] ;
3 -> 4 ;
5 [label="Publisher <= 3.0\ngini = 0.926\nsamples = 18\nvalue = [0, 0, 0 ... 0, 0, 0]\nclass = Antiphona no Seikahime: Tenshi no Gakufu Op.A", fillcolor="#ffffff"] ;
4 -> 5 ;
6 [label="gini = 0.75\nsamples = 4\nvalue = [0, 0, 0 ... 0, 0, 0]\nclass = Age of Empires II: The Age of Kings", fillcolor="#ffffff"] ;
5 -> 6 ;
7 [label="gini = 0.898\nsamples = 14\nvalue = [0, 0, 0 ... 0, 0, 0]\nclass = Antiphona no Seikahime: Tenshi no Gakufu Op.A", fillcolor="#ffffff"] ;
5 -> 7 ;
8 [label="gini = 0.827\nsamples = 15\nvalue = [0, 0, 0 ... 0, 0, 0]\nclass = Re-Volt", fillcolor="#f9d1e6"] ;
4 -> 8 ;
9 [label="Publisher <= 20.5\ngini = 0.988\nsamples = 247\nvalue = [0, 0, 0 ... 0, 0, 0]\nclass = .hack//Outbreak Part 3", fillcolor="#ffffff"] ;
3 -> 9 ;
10 [label="Publisher <= 16.5\ngini = 0.95\nsamples = 22\nvalue = [0, 0, 0 ... 0, 0, 0]\nclass = Agatha Christie: Peril at End House", fillcolor="#fefaf6"] ;
9 -> 10 ;
11 [label="Publisher <= 8.5\ngini = 0.875\nsamples = 8\nvalue = [0, 0, 0 ... 0, 0, 0]\nclass = 2 in 1 Combo Pack: Sonic Heroes / Super Monkey Ball Deluxe", fillcolor="#ffffff"] ;
10 -> 11 ;
12 [label="gini = 0.75\nsamples = 4\nvalue = [0, 0, 0 ... 0, 0, 0]\nclass = All-Star Baseball 99", fillcolor="#ffffff"] ;
11 -> 12 ;
13 [label="Publisher <= 11.0\ngini = 0.75\nsamples = 4\nvalue = [0, 0, 0 ... 0, 0, 0]\nclass = 2 in 1 Combo Pack: Sonic Heroes / Super Monkey Ball Deluxe", fillcolor="#ffffff"] ;
11 -> 13 ;
14 [label="gini = 0.5\nsamples = 2\nvalue = [0, 0, 0 ... 0, 0, 0]\nclass = 2 in 1 Combo Pack: Sonic Heroes / Super Monkey Ball Deluxe", fillcolor="#ffffff"] ;
13 -> 14 ;
15 [label="Publisher <= 14.0\ngini = 0.5\nsamples = 2\nvalue = [0, 0, 0 ... 0, 0, 0]\nclass = Commando: Steel Disaster", fillcolor="#ffffff"] ;
13 -> 15 ;
16 [label="gini = 0.0\nsamples = 1\nvalue = [0, 0, 0 ... 0, 0, 0]\nclass = Commando: Steel Disaster", fillcolor="#9ae539"] ;
15 -> 16 ;
17 [label="gini = 0.0\nsamples = 1\nvalue = [0, 0, 0 ... 0, 0, 0]\nclass = Jack Keane", fillcolor="#39aee5"] ;
15 -> 17 ;
18 [label="Publisher <= 18.0\ngini = 0.918\nsamples = 14\nvalue = [0, 0, 0 ... 0, 0, 0]\nclass = Agatha Christie: Peril at End House", fillcolor="#fdf7f0"] ;
10 -> 18 ;
19 [label="gini = 0.88\nsamples = 10\nvalue = [0, 0, 0 ... 0, 0, 0]\nclass = Agatha Christie: Peril at End House", fillcolor="#fcf3e9"] ;
18 -> 19 ;
20 [label="Publisher <= 19.5\ngini = 0.75\nsamples = 4\nvalue = [0, 0, 0 ... 0, 0, 0]\nclass = After Hours Athletes", fillcolor="#ffffff"] ;
18 -> 20 ;
21 [label="gini = 0.667\nsamples = 3\nvalue = [0, 0, 0 ... 0, 0, 0]\nclass = Digimon World DS", fillcolor="#ffffff"] ;
20 -> 21 ;
22 [label="gini = 0.0\nsamples = 1\nvalue = [0, 0, 0 ... 0, 0, 0]\nclass = After Hours Athletes", fillcolor="#e59539"] ;
20 -> 22 ;
23 [label="Publisher <= 21.5\ngini = 0.986\nsamples = 225\nvalue = [0, 0, 0 ... 0, 0, 0]\nclass = .hack//Outbreak Part 3", fillcolor="#ffffff"] ;
9 -> 23 ;
24 [label="gini = 0.986\nsamples = 223\nvalue = [0, 0, 0 ... 0, 0, 0]\nclass = .hack//Outbreak Part 3", fillcolor="#ffffff"] ;
23 -> 24 ;
25 [label="Publisher <= 22.5\ngini = 0.5\nsamples = 2\nvalue = [0, 0, 0 ... 0, 0, 0]\nclass = Next Generation of Chaos", fillcolor="#ffffff"] ;
23 -> 25 ;
26 [label="gini = 0.0\nsamples = 1\nvalue = [0, 0, 0 ... 0, 0, 0]\nclass = Spider-Man: The Movie", fillcolor="#e56439"] ;
25 -> 26 ;
27 [label="gini = 0.0\nsamples = 1\nvalue = [0, 0, 0 ... 0, 0, 0]\nclass = Next Generation of Chaos", fillcolor="#c039e5"] ;
25 -> 27 ;
28 [label="Genre <= 10.5\ngini = 0.998\nsamples = 930\nvalue = [0, 0, 0 ... 0, 0, 1]\nclass = Phantasy Star Online Episode III: C.A.R.D. Revolution", fillcolor="#ffffff"] ;
2 -> 28 ;
29 [label="Genre <= 9.5\ngini = 0.998\nsamples = 906\nvalue = [0, 0, 0 ... 0, 0, 1]\nclass = Phantasy Star Online Episode III: C.A.R.D. Revolution", fillcolor="#ffffff"] ;
28 -> 29 ;
30 [label="Publisher <= 22.0\ngini = 0.997\nsamples = 695\nvalue = [0, 0, 0 ... 0, 0, 1]\nclass = Phantasy Star Online Episode III: C.A.R.D. Revolution", fillcolor="#ffffff"] ;
29 -> 30 ;
31 [label="Genre <= 7.5\ngini = 0.997\nsamples = 691\nvalue = [0, 0, 0 ... 0, 0, 1]\nclass = Phantasy Star Online Episode III: C.A.R.D. Revolution", fillcolor="#ffffff"] ;
30 -> 31 ;
32 [label="Genre <= 5.5\ngini = 0.996\nsamples = 473\nvalue = [0, 0, 0 ... 0, 0, 1]\nclass = Phantasy Star Online Episode III: C.A.R.D. Revolution", fillcolor="#fffeff"] ;
31 -> 32 ;
33 [label="Genre <= 3.5\ngini = 0.994\nsamples = 319\nvalue = [0, 0, 0 ... 0, 0, 1]\nclass = Phantasy Star Online Episode III: C.A.R.D. Revolution", fillcolor="#fffeff"] ;
32 -> 33 ;
34 [label="Publisher <= 20.5\ngini = 0.992\nsamples = 232\nvalue = [0, 0, 0 ... 0, 0, 0]\nclass = Astroblast", fillcolor="#ffffff"] ;
33 -> 34 ;
35 [label="Publisher <= 16.0\ngini = 0.989\nsamples = 129\nvalue = [0, 0, 0 ... 0, 0, 0]\nclass = Bust-A-Bloc", fillcolor="#ffffff"] ;
34 -> 35 ;
36 [label="Publisher <= 5.0\ngini = 0.985\nsamples = 94\nvalue = [0, 0, 0 ... 0, 0, 0]\nclass = Bust-A-Bloc", fillcolor="#ffffff"] ;
35 -> 36 ;
37 [label="Publisher <= 2.0\ngini = 0.72\nsamples = 5\nvalue = [0, 0, 0 ... 0, 0, 0]\nclass = Smart Bomb", fillcolor="#f8d2ce"] ;
36 -> 37 ;
38 [label="gini = 0.0\nsamples = 1\nvalue = [0, 0, 0 ... 0, 0, 0]\nclass = Metroid Fusion", fillcolor="#5e39e5"] ;
37 -> 38 ;
39 [label="Genre <= 1.5\ngini = 0.625\nsamples = 4\nvalue = [0, 0, 0 ... 0, 0, 0]\nclass = Smart Bomb", fillcolor="#f6c4bd"] ;
37 -> 39 ;
40 [label="gini = 0.444\nsamples = 3\nvalue = [0, 0, 0 ... 0, 0, 0]\nclass = Smart Bomb", fillcolor="#f2a69c"] ;
39 -> 40 ;
41 [label="gini = 0.0\nsamples = 1\nvalue = [0, 0, 0 ... 0, 0, 0]\nclass = Castlevania Bloodlines", fillcolor="#b7e539"] ;
39 -> 41 ;
42 [label="Publisher <= 6.5\ngini = 0.984\nsamples = 89\nvalue = [0, 0, 0 ... 0, 0, 0]\nclass = Bust-A-Bloc", fillcolor="#ffffff"] ;
36 -> 42 ;
43 [label="Genre <= 1.5\ngini = 0.964\nsamples = 38\nvalue = [0, 0, 0 ... 0, 0, 0]\nclass = Puchi Puchi Virus", fillcolor="#fefafd"] ;
42 -> 43 ;
44 [label="gini = 0.625\nsamples = 4\nvalue = [0, 0, 0 ... 0, 0, 0]\nclass = Blaster Master: Blasting Again", fillcolor="#f6f4bd"] ;
43 -> 44 ;
45 [label="Genre <= 2.5\ngini = 0.96\nsamples = 34\nvalue = [0, 0, 0 ... 0, 0, 0]\nclass = Puchi Puchi Virus", fillcolor="#fef9fc"] ;
43 -> 45 ;
46 [label="gini = 0.84\nsamples = 10\nvalue = [0, 0, 0 ... 0, 0, 0]\nclass = Puchi Puchi Virus", fillcolor="#f9d3ec"] ;
45 -> 46 ;
47 [label="gini = 0.948\nsamples = 24\nvalue = [0, 0, 0 ... 0, 0, 0]\nclass = Akiba's Trip: Undead & Undressed", fillcolor="#ffffff"] ;
45 -> 47 ;
48 [label="Publisher <= 7.5\ngini = 0.972\nsamples = 51\nvalue = [0, 0, 0 ... 0, 0, 0]\nclass = Bust-A-Bloc", fillcolor="#ffffff"] ;
42 -> 48 ;
49 [label="gini = 0.953\nsamples = 35\nvalue = [0, 0, 0 ... 0, 0, 0]\nclass = Bust-A-Bloc", fillcolor="#ffffff"] ;
48 -> 49 ;
50 [label="Genre <= 1.5\ngini = 0.938\nsamples = 16\nvalue = [0, 0, 0 ... 0, 0, 0]\nclass = Amplitude", fillcolor="#ffffff"] ;
48 -> 50 ;
51 [label="Publisher <= 13.5\ngini = 0.875\nsamples = 8\nvalue = [0, 0, 0 ... 0, 0, 0]\nclass = Call of Duty: Modern Warfare 3: Defiance", fillcolor="#ffffff"] ;
50 -> 51 ;
52 [label="gini = 0.5\nsamples = 2\nvalue = [0, 0, 0 ... 0, 0, 0]\nclass = Call of Duty: Modern Warfare 3: Defiance", fillcolor="#ffffff"] ;
51 -> 52 ;
53 [label="gini = 0.833\nsamples = 6\nvalue = [0, 0, 0 ... 0, 0, 0]\nclass = Diabolik Lovers: Vandead Carnival", fillcolor="#ffffff"] ;
51 -> 53 ;
54 [label="Genre <= 2.5\ngini = 0.875\nsamples = 8\nvalue = [0, 0, 0 ... 0, 0, 0]\nclass = Amplitude", fillcolor="#ffffff"] ;
50 -> 54 ;
55 [label="gini = 0.5\nsamples = 2\nvalue = [0, 0, 0 ... 0, 0, 0]\nclass = Amplitude", fillcolor="#ffffff"] ;
54 -> 55 ;
56 [label="Publisher <= 9.5\ngini = 0.833\nsamples = 6\nvalue = [0, 0, 0 ... 0, 0, 0]\nclass = Barnyard", fillcolor="#ffffff"] ;
54 -> 56 ;
57 [label="gini = 0.0\nsamples = 1\nvalue = [0, 0, 0 ... 0, 0, 0]\nclass = Queen's Blade: Spiral Chaos", fillcolor="#e539a3"] ;
56 -> 57 ;
58 [label="Publisher <= 12.0\ngini = 0.8\nsamples = 5\nvalue = [0, 0, 0 ... 0, 0, 0]\nclass = Barnyard", fillcolor="#ffffff"] ;
56 -> 58 ;
59 [label="gini = 0.667\nsamples = 3\nvalue = [0, 0, 0 ... 0, 0, 0]\nclass = Franklin's Great Adventures", fillcolor="#ffffff"] ;
58 -> 59 ;
60 [label="Publisher <= 14.0\ngini = 0.5\nsamples = 2\nvalue = [0, 0, 0 ... 0, 0, 0]\nclass = Barnyard", fillcolor="#ffffff"] ;
58 -> 60 ;
61 [label="gini = 0.0\nsamples = 1\nvalue = [0, 0, 0 ... 0, 0, 0]\nclass = Pet Shop Monogatari DS 2", fillcolor="#e539da"] ;
60 -> 61 ;
62 [label="gini = 0.0\nsamples = 1\nvalue = [0, 0, 0 ... 0, 0, 0]\nclass = Barnyard", fillcolor="#e5c839"] ;
60 -> 62 ;
63 [label="Genre <= 2.5\ngini = 0.955\nsamples = 35\nvalue = [0, 0, 0 ... 0, 0, 0]\nclass = Horrid Henry's Horrid Adventure", fillcolor="#f9fefe"] ;
35 -> 63 ;
64 [label="Genre <= 1.5\ngini = 0.949\nsamples = 30\nvalue = [0, 0, 0 ... 0, 0, 0]\nclass = Horrid Henry's Horrid Adventure", fillcolor="#f8fdfe"] ;
63 -> 64 ;
65 [label="Publisher <= 18.0\ngini = 0.833\nsamples = 6\nvalue = [0, 0, 0 ... 0, 0, 0]\nclass = Ace Combat X: Skies of Deception", fillcolor="#ffffff"] ;
64 -> 65 ;
66 [label="gini = 0.667\nsamples = 3\nvalue = [0, 0, 0 ... 0, 0, 0]\nclass = Chousoku Henkei Gyrozetter: Albatross no Tsubasa", fillcolor="#ffffff"] ;
65 -> 66 ;
67 [label="Publisher <= 19.5\ngini = 0.667\nsamples = 3\nvalue = [0, 0, 0 ... 0, 0, 0]\nclass = Ace Combat X: Skies of Deception", fillcolor="#ffffff"] ;
65 -> 67 ;
68 [label="gini = 0.0\nsamples = 1\nvalue = [0, 0, 0 ... 0, 0, 0]\nclass = Ace Combat X: Skies of Deception", fillcolor="#e58f39"] ;
67 -> 68 ;
69 [label="gini = 0.5\nsamples = 2\nvalue = [0, 0, 0 ... 0, 0, 0]\nclass = Afrika", fillcolor="#ffffff"] ;
67 -> 69 ;
70 [label="gini = 0.931\nsamples = 24\nvalue = [0, 0, 0 ... 0, 0, 0]\nclass = Horrid Henry's Horrid Adventure", fillcolor="#f6fdfe"] ;
64 -> 70 ;
71 [label="gini = 0.64\nsamples = 5\nvalue = [0, 0, 0 ... 0, 0, 0]\nclass = Jet Moto 2", fillcolor="#ffffff"] ;
63 -> 71 ;
72 [label="Genre <= 1.5\ngini = 0.976\nsamples = 103\nvalue = [0, 0, 0 ... 0, 0, 0]\nclass = Astroblast", fillcolor="#ffffff"] ;
34 -> 72 ;
73 [label="gini = 0.87\nsamples = 18\nvalue = [0, 0, 0 ... 0, 0, 0]\nclass = Astroblast", fillcolor="#fdfaf2"] ;
72 -> 73 ;
74 [label="Genre <= 2.5\ngini = 0.97\nsamples = 85\nvalue = [0, 0, 0 ... 0, 0, 0]\nclass = Fatal Fury: Battle Archives Volume 1", fillcolor="#ffffff"] ;
72 -> 74 ;
75 [label="gini = 0.667\nsamples = 6\nvalue = [0, 0, 0 ... 0, 0, 0]\nclass = Spore Creatures", fillcolor="#f5c2b0"] ;
74 -> 75 ;
76 [label="gini = 0.967\nsamples = 79\nvalue = [0, 0, 0 ... 0, 0, 0]\nclass = Fatal Fury: Battle Archives Volume 1", fillcolor="#ffffff"] ;
74 -> 76 ;
77 [label="Publisher <= 19.5\ngini = 0.972\nsamples = 87\nvalue = [0, 0, 0 ... 0, 0, 1]\nclass = Phantasy Star Online Episode III: C.A.R.D. Revolution", fillcolor="#fefafe"] ;
33 -> 77 ;
78 [label="Publisher <= 12.5\ngini = 0.962\nsamples = 35\nvalue = [0, 0, 0 ... 0, 0, 1]\nclass = Shrek Extra Large", fillcolor="#fef9f9"] ;
77 -> 78 ;
79 [label="Publisher <= 3.5\ngini = 0.957\nsamples = 23\nvalue = [0, 0, 0 ... 0, 0, 1]\nclass = Amagami", fillcolor="#ffffff"] ;
78 -> 79 ;
80 [label="gini = 0.0\nsamples = 1\nvalue = [0, 0, 0 ... 0, 0, 0]\nclass = Spider-Man 3", fillcolor="#e56139"] ;
79 -> 80 ;
81 [label="Publisher <= 5.0\ngini = 0.955\nsamples = 22\nvalue = [0, 0, 0 ... 0, 0, 1]\nclass = Amagami", fillcolor="#ffffff"] ;
79 -> 81 ;
82 [label="Genre <= 4.5\ngini = 0.5\nsamples = 2\nvalue = [0, 0, 0 ... 0, 0, 0]\nclass = Amagami", fillcolor="#ffffff"] ;
81 -> 82 ;
83 [label="gini = 0.0\nsamples = 1\nvalue = [0, 0, 0 ... 0, 0, 0]\nclass = Mister Mosquito", fillcolor="#6a39e5"] ;
82 -> 83 ;
84 [label="gini = 0.0\nsamples = 1\nvalue = [0, 0, 0 ... 0, 0, 0]\nclass = Amagami", fillcolor="#e5a039"] ;
82 -> 84 ;
85 [label="Genre <= 4.5\ngini = 0.95\nsamples = 20\nvalue = [0, 0, 0 ... 0, 0, 1]\nclass = Assassin's Creed: Altair's Chronicles", fillcolor="#ffffff"] ;
81 -> 85 ;
86 [label="gini = 0.8\nsamples = 5\nvalue = [0, 0, 0 ... 0, 0, 1]\nclass = Castlevania Judgment", fillcolor="#ffffff"] ;
85 -> 86 ;
87 [label="Publisher <= 7.0\ngini = 0.933\nsamples = 15\nvalue = [0, 0, 0 ... 0, 0, 0]\nclass = Assassin's Creed: Altair's Chronicles", fillcolor="#ffffff"] ;
85 -> 87 ;
88 [label="gini = 0.929\nsamples = 14\nvalue = [0, 0, 0 ... 0, 0, 0]\nclass = Assassin's Creed: Altair's Chronicles", fillcolor="#ffffff"] ;
87 -> 88 ;
89 [label="gini = 0.0\nsamples = 1\nvalue = [0, 0, 0 ... 0, 0, 0]\nclass = Heart no Kuni no Alice", fillcolor="#39dfe5"] ;
87 -> 89 ;
90 [label="Genre <= 4.5\ngini = 0.833\nsamples = 12\nvalue = [0, 0, 0 ... 0, 0, 0]\nclass = Shrek Extra Large", fillcolor="#fceceb"] ;
78 -> 90 ;
91 [label="Publisher <= 17.5\ngini = 0.56\nsamples = 5\nvalue = [0, 0, 0 ... 0, 0, 0]\nclass = Shrek Extra Large", fillcolor="#f29e9c"] ;
90 -> 91 ;
92 [label="gini = 0.375\nsamples = 4\nvalue = [0, 0, 0 ... 0, 0, 0]\nclass = Shrek Extra Large", fillcolor="#ee7d7b"] ;
91 -> 92 ;
93 [label="gini = 0.0\nsamples = 1\nvalue = [0, 0, 0 ... 0, 0, 0]\nclass = Blazing Angels: Squadrons of WWII", fillcolor="#e5e239"] ;
91 -> 93 ;
94 [label="gini = 0.735\nsamples = 7\nvalue = [0, 0, 0 ... 0, 0, 0]\nclass = Blood of Bahamut", fillcolor="#ffffff"] ;
90 -> 94 ;
95 [label="Genre <= 4.5\ngini = 0.938\nsamples = 52\nvalue = [0, 0, 0 ... 0, 0, 0]\nclass = Phantasy Star Online Episode III: C.A.R.D. Revolution", fillcolor="#fef7fd"] ;
77 -> 95 ;
96 [label="gini = 0.923\nsamples = 46\nvalue = [0, 0, 0 ... 0, 0, 0]\nclass = Phantasy Star Online Episode III: C.A.R.D. Revolution", fillcolor="#fef5fd"] ;
95 -> 96 ;
97 [label="gini = 0.833\nsamples = 6\nvalue = [0, 0, 0 ... 0, 0, 0]\nclass = Beyblade: Metal Masters", fillcolor="#ffffff"] ;
95 -> 97 ;
98 [label="Publisher <= 20.5\ngini = 0.987\nsamples = 154\nvalue = [0, 0, 0 ... 0, 0, 0]\nclass = Jersey Devil", fillcolor="#ffffff"] ;
32 -> 98 ;
99 [label="Publisher <= 19.5\ngini = 0.979\nsamples = 70\nvalue = [0, 0, 0 ... 0, 0, 0]\nclass = Blinx 2: Masters of Time & Space", fillcolor="#ffffff"] ;
98 -> 99 ;
100 [label="Publisher <= 15.5\ngini = 0.977\nsamples = 64\nvalue = [0, 0, 0 ... 0, 0, 0]\nclass = Blinx 2: Masters of Time & Space", fillcolor="#ffffff"] ;
99 -> 100 ;
101 [label="Genre <= 6.5\ngini = 0.957\nsamples = 25\nvalue = [0, 0, 0 ... 0, 0, 0]\nclass = Arcade Shooting Gallery", fillcolor="#fefcf7"] ;
100 -> 101 ;
102 [label="Publisher <= 8.0\ngini = 0.864\nsamples = 9\nvalue = [0, 0, 0 ... 0, 0, 0]\nclass = Arcade Shooting Gallery", fillcolor="#fcf5e6"] ;
101 -> 102 ;
103 [label="Publisher <= 3.5\ngini = 0.444\nsamples = 3\nvalue = [0, 0, 0 ... 0, 0, 0]\nclass = Arcade Shooting Gallery", fillcolor="#f2d69c"] ;
102 -> 103 ;
104 [label="gini = 0.0\nsamples = 1\nvalue = [0, 0, 0 ... 0, 0, 0]\nclass = Mario & Luigi: Bowser's Inside Story", fillcolor="#3c39e5"] ;
103 -> 104 ;
105 [label="gini = 0.0\nsamples = 2\nvalue = [0, 0, 0 ... 0, 0, 0]\nclass = Arcade Shooting Gallery", fillcolor="#e5ac39"] ;
103 -> 105 ;
106 [label="Publisher <= 11.0\ngini = 0.833\nsamples = 6\nvalue = [0, 0, 0 ... 0, 0, 0]\nclass = Ace Combat 2", fillcolor="#ffffff"] ;
102 -> 106 ;
107 [label="gini = 0.5\nsamples = 2\nvalue = [0, 0, 0 ... 0, 0, 0]\nclass = Murdered: Soul Suspect", fillcolor="#ffffff"] ;
106 -> 107 ;
108 [label="Publisher <= 12.5\ngini = 0.75\nsamples = 4\nvalue = [0, 0, 0 ... 0, 0, 0]\nclass = Ace Combat 2", fillcolor="#ffffff"] ;
106 -> 108 ;
109 [label="gini = 0.0\nsamples = 1\nvalue = [0, 0, 0 ... 0, 0, 0]\nclass = Puzzle Quest: Galactrix", fillcolor="#e539a6"] ;
108 -> 109 ;
110 [label="gini = 0.667\nsamples = 3\nvalue = [0, 0, 0 ... 0, 0, 0]\nclass = Ace Combat 2", fillcolor="#ffffff"] ;
108 -> 110 ;
111 [label="Publisher <= 2.5\ngini = 0.938\nsamples = 16\nvalue = [0, 0, 0 ... 0, 0, 0]\nclass = Chocobo Racing", fillcolor="#ffffff"] ;
101 -> 111 ;
112 [label="gini = 0.0\nsamples = 1\nvalue = [0, 0, 0 ... 0, 0, 0]\nclass = Harvest Moon 2 GBC", fillcolor="#39e5e5"] ;
111 -> 112 ;
113 [label="Publisher <= 5.0\ngini = 0.933\nsamples = 15\nvalue = [0, 0, 0 ... 0, 0, 0]\nclass = Chocobo Racing", fillcolor="#ffffff"] ;
111 -> 113 ;
114 [label="gini = 0.0\nsamples = 1\nvalue = [0, 0, 0 ... 0, 0, 0]\nclass = Chocobo Racing", fillcolor="#ace539"] ;
113 -> 114 ;
115 [label="Publisher <= 6.5\ngini = 0.929\nsamples = 14\nvalue = [0, 0, 0 ... 0, 0, 0]\nclass = Countdown Vampires", fillcolor="#ffffff"] ;
113 -> 115 ;
116 [label="gini = 0.875\nsamples = 8\nvalue = [0, 0, 0 ... 0, 0, 0]\nclass = Full House Kiss 2", fillcolor="#ffffff"] ;
115 -> 116 ;
117 [label="Publisher <= 10.0\ngini = 0.833\nsamples = 6\nvalue = [0, 0, 0 ... 0, 0, 0]\nclass = Countdown Vampires", fillcolor="#ffffff"] ;
115 -> 117 ;
118 [label="gini = 0.0\nsamples = 1\nvalue = [0, 0, 0 ... 0, 0, 0]\nclass = Madden NFL 09 All-Play", fillcolor="#3941e5"] ;
117 -> 118 ;
119 [label="Publisher <= 13.5\ngini = 0.8\nsamples = 5\nvalue = [0, 0, 0 ... 0, 0, 0]\nclass = Countdown Vampires", fillcolor="#ffffff"] ;
117 -> 119 ;
120 [label="gini = 0.667\nsamples = 3\nvalue = [0, 0, 0 ... 0, 0, 0]\nclass = Mount & Blade Collection", fillcolor="#ffffff"] ;
119 -> 120 ;
121 [label="gini = 0.5\nsamples = 2\nvalue = [0, 0, 0 ... 0, 0, 0]\nclass = Countdown Vampires", fillcolor="#ffffff"] ;
119 -> 121 ;
122 [label="Publisher <= 17.5\ngini = 0.955\nsamples = 39\nvalue = [0, 0, 0 ... 0, 0, 0]\nclass = Blinx 2: Masters of Time & Space", fillcolor="#ffffff"] ;
100 -> 122 ;
123 [label="gini = 0.949\nsamples = 36\nvalue = [0, 0, 0 ... 0, 0, 0]\nclass = Blinx 2: Masters of Time & Space", fillcolor="#ffffff"] ;
122 -> 123 ;
124 [label="Publisher <= 18.5\ngini = 0.667\nsamples = 3\nvalue = [0, 0, 0 ... 0, 0, 0]\nclass = Fire Emblem: Seisen no Keifu", fillcolor="#ffffff"] ;
122 -> 124 ;
125 [label="gini = 0.0\nsamples = 1\nvalue = [0, 0, 0 ... 0, 0, 0]\nclass = Reader Rabbit 2nd Grade", fillcolor="#e53992"] ;
124 -> 125 ;
126 [label="gini = 0.5\nsamples = 2\nvalue = [0, 0, 0 ... 0, 0, 0]\nclass = Fire Emblem: Seisen no Keifu", fillcolor="#ffffff"] ;
124 -> 126 ;
127 [label="gini = 0.778\nsamples = 6\nvalue = [0, 0, 0 ... 0, 0, 0]\nclass = Halo 3: ODST", fillcolor="#d7faf8"] ;
99 -> 127 ;
128 [label="Genre <= 6.5\ngini = 0.969\nsamples = 84\nvalue = [0, 0, 0 ... 0, 0, 0]\nclass = Jersey Devil", fillcolor="#ffffff"] ;
98 -> 128 ;
129 [label="gini = 0.954\nsamples = 58\nvalue = [0, 0, 0 ... 0, 0, 0]\nclass = Kids Learn Music A+ Edition", fillcolor="#fbfdff"] ;
128 -> 129 ;
130 [label="gini = 0.911\nsamples = 26\nvalue = [0, 0, 0 ... 0, 0, 0]\nclass = Jersey Devil", fillcolor="#eef7fd"] ;
128 -> 130 ;
131 [label="Publisher <= 19.0\ngini = 0.99\nsamples = 218\nvalue = [0, 0, 0 ... 0, 0, 0]\nclass = Sengoku Basara 3 Utage", fillcolor="#fffefe"] ;
31 -> 131 ;
132 [label="Genre <= 8.5\ngini = 0.976\nsamples = 74\nvalue = [0, 0, 0 ... 0, 0, 0]\nclass = Mega Man Battle Network 5: Double Team DS (JP sales)", fillcolor="#fcfcff"] ;
131 -> 132 ;
133 [label="Publisher <= 6.5\ngini = 0.94\nsamples = 35\nvalue = [0, 0, 0 ... 0, 0, 0]\nclass = Mega Man Battle Network 5: Double Team DS (JP sales)", fillcolor="#f4f3fd"] ;
132 -> 133 ;
134 [label="Publisher <= 5.0\ngini = 0.87\nsamples = 19\nvalue = [0, 0, 0 ... 0, 0, 0]\nclass = Mega Man Battle Network 5: Double Team DS (JP sales)", fillcolor="#e9e6fc"] ;
133 -> 134 ;
135 [label="Publisher <= 3.0\ngini = 0.778\nsamples = 6\nvalue = [0, 0, 0 ... 0, 0, 0]\nclass = Ao no Kanata no Four Rhythm", fillcolor="#faeed7"] ;
134 -> 135 ;
136 [label="gini = 0.0\nsamples = 1\nvalue = [0, 0, 0 ... 0, 0, 0]\nclass = Conflict: Global Terror", fillcolor="#98e539"] ;
135 -> 136 ;
137 [label="gini = 0.72\nsamples = 5\nvalue = [0, 0, 0 ... 0, 0, 0]\nclass = Ao no Kanata no Four Rhythm", fillcolor="#f8eace"] ;
135 -> 137 ;
138 [label="gini = 0.769\nsamples = 13\nvalue = [0, 0, 0 ... 0, 0, 0]\nclass = Mega Man Battle Network 5: Double Team DS (JP sales)", fillcolor="#dcd7fa"] ;
134 -> 138 ;
139 [label="Publisher <= 12.0\ngini = 0.898\nsamples = 16\nvalue = [0, 0, 0 ... 0, 0, 0]\nclass = Shaman King: Soul Fight", fillcolor="#fdf1f2"] ;
133 -> 139 ;
140 [label="gini = 0.5\nsamples = 2\nvalue = [0, 0, 0 ... 0, 0, 0]\nclass = Bleach: Heat the Soul 4", fillcolor="#ffffff"] ;
139 -> 140 ;
141 [label="gini = 0.878\nsamples = 14\nvalue = [0, 0, 0 ... 0, 0, 0]\nclass = Shaman King: Soul Fight", fillcolor="#fdeef0"] ;
139 -> 141 ;
142 [label="Publisher <= 7.5\ngini = 0.961\nsamples = 39\nvalue = [0, 0, 0 ... 0, 0, 0]\nclass = Galaxy Angel II: Mugen Kairou no Kagi", fillcolor="#f4fefa"] ;
132 -> 142 ;
143 [label="Publisher <= 6.5\ngini = 0.958\nsamples = 36\nvalue = [0, 0, 0 ... 0, 0, 0]\nclass = Galaxy Angel II: Mugen Kairou no Kagi", fillcolor="#f3fdfa"] ;
142 -> 143 ;
144 [label="gini = 0.957\nsamples = 35\nvalue = [0, 0, 0 ... 0, 0, 0]\nclass = Galaxy Angel II: Mugen Kairou no Kagi", fillcolor="#f3fdfa"] ;
143 -> 144 ;
145 [label="gini = 0.0\nsamples = 1\nvalue = [0, 0, 0 ... 0, 0, 0]\nclass = Knack", fillcolor="#3972e5"] ;
143 -> 145 ;
146 [label="Publisher <= 10.5\ngini = 0.444\nsamples = 3\nvalue = [0, 0, 0 ... 0, 0, 0]\nclass = EyeToy Play", fillcolor="#9cf2b4"] ;
142 -> 146 ;
147 [label="gini = 0.0\nsamples = 2\nvalue = [0, 0, 0 ... 0, 0, 0]\nclass = EyeToy Play", fillcolor="#39e56a"] ;
146 -> 147 ;
148 [label="gini = 0.0\nsamples = 1\nvalue = [0, 0, 0 ... 0, 0, 0]\nclass = New Prince of Tennis: Go to the Top", fillcolor="#c039e5"] ;
146 -> 148 ;
149 [label="Genre <= 8.5\ngini = 0.983\nsamples = 144\nvalue = [0, 0, 0 ... 0, 0, 0]\nclass = Sengoku Basara 3 Utage", fillcolor="#fffcfc"] ;
131 -> 149 ;
150 [label="gini = 0.979\nsamples = 126\nvalue = [0, 0, 0 ... 0, 0, 0]\nclass = Sengoku Basara 3 Utage", fillcolor="#fffcfc"] ;
149 -> 150 ;
151 [label="gini = 0.932\nsamples = 18\nvalue = [0, 0, 0 ... 0, 0, 0]\nclass = All-Star Baseball 2000", fillcolor="#ffffff"] ;
149 -> 151 ;
152 [label="Genre <= 5.5\ngini = 0.375\nsamples = 4\nvalue = [0, 0, 0 ... 0, 0, 0]\nclass = Lost Planet: Extreme Condition", fillcolor="#7b8cee"] ;
30 -> 152 ;
153 [label="gini = 0.0\nsamples = 1\nvalue = [0, 0, 0 ... 0, 0, 0]\nclass = Spanish for Everyone!", fillcolor="#e55e39"] ;
152 -> 153 ;
154 [label="gini = 0.0\nsamples = 3\nvalue = [0, 0, 0 ... 0, 0, 0]\nclass = Lost Planet: Extreme Condition", fillcolor="#3953e5"] ;
152 -> 154 ;
155 [label="Publisher <= 22.0\ngini = 0.989\nsamples = 211\nvalue = [0, 0, 0 ... 0, 0, 0]\nclass = BlazBlue: Chrono Phantasma Extend", fillcolor="#ffffff"] ;
29 -> 155 ;
156 [label="Publisher <= 20.0\ngini = 0.988\nsamples = 195\nvalue = [0, 0, 0 ... 0, 0, 0]\nclass = BlazBlue: Chrono Phantasma Extend", fillcolor="#ffffff"] ;
155 -> 156 ;
157 [label="Publisher <= 18.5\ngini = 0.979\nsamples = 83\nvalue = [0, 0, 0 ... 0, 0, 0]\nclass = BlazBlue: Chrono Phantasma Extend", fillcolor="#fefefa"] ;
156 -> 157 ;
158 [label="Publisher <= 7.5\ngini = 0.979\nsamples = 81\nvalue = [0, 0, 0 ... 0, 0, 0]\nclass = BlazBlue: Chrono Phantasma Extend", fillcolor="#fefefa"] ;
157 -> 158 ;
159 [label="Publisher <= 4.5\ngini = 0.93\nsamples = 29\nvalue = [0, 0, 0 ... 0, 0, 0]\nclass = BlazBlue: Chrono Phantasma Extend", fillcolor="#fdfdf0"] ;
158 -> 159 ;
160 [label="gini = 0.72\nsamples = 5\nvalue = [0, 0, 0 ... 0, 0, 0]\nclass = Fossil Fighters (JP sales)", fillcolor="#cef8e5"] ;
159 -> 160 ;
161 [label="Publisher <= 5.5\ngini = 0.91\nsamples = 24\nvalue = [0, 0, 0 ... 0, 0, 0]\nclass = BlazBlue: Chrono Phantasma Extend", fillcolor="#fdfcec"] ;
159 -> 161 ;
162 [label="gini = 0.0\nsamples = 1\nvalue = [0, 0, 0 ... 0, 0, 0]\nclass = Power Pro Success Legends", fillcolor="#e539ba"] ;
161 -> 162 ;
163 [label="gini = 0.904\nsamples = 23\nvalue = [0, 0, 0 ... 0, 0, 0]\nclass = BlazBlue: Chrono Phantasma Extend", fillcolor="#fcfceb"] ;
161 -> 163 ;
164 [label="Publisher <= 15.0\ngini = 0.97\nsamples = 52\nvalue = [0, 0, 0 ... 0, 0, 0]\nclass = Activision Hits: Remixed", fillcolor="#ffffff"] ;
158 -> 164 ;
165 [label="Publisher <= 9.5\ngini = 0.929\nsamples = 14\nvalue = [0, 0, 0 ... 0, 0, 0]\nclass = All-Star Baseball 2001", fillcolor="#ffffff"] ;
164 -> 165 ;
166 [label="gini = 0.0\nsamples = 1\nvalue = [0, 0, 0 ... 0, 0, 0]\nclass = Legends of Wrestling", fillcolor="#395ee5"] ;
165 -> 166 ;
167 [label="Publisher <= 11.0\ngini = 0.923\nsamples = 13\nvalue = [0, 0, 0 ... 0, 0, 0]\nclass = All-Star Baseball 2001", fillcolor="#ffffff"] ;
165 -> 167 ;
168 [label="gini = 0.857\nsamples = 7\nvalue = [0, 0, 0 ... 0, 0, 0]\nclass = Castlevania: Lords of Shadow - Reverie", fillcolor="#ffffff"] ;
167 -> 168 ;
169 [label="Publisher <= 12.5\ngini = 0.833\nsamples = 6\nvalue = [0, 0, 0 ... 0, 0, 0]\nclass = All-Star Baseball 2001", fillcolor="#ffffff"] ;
167 -> 169 ;
170 [label="gini = 0.0\nsamples = 1\nvalue = [0, 0, 0 ... 0, 0, 0]\nclass = All-Star Baseball 2001", fillcolor="#e5a039"] ;
169 -> 170 ;
171 [label="gini = 0.8\nsamples = 5\nvalue = [0, 0, 0 ... 0, 0, 0]\nclass = Crash & Spyro Superpack", fillcolor="#ffffff"] ;
169 -> 171 ;
172 [label="Publisher <= 17.5\ngini = 0.954\nsamples = 38\nvalue = [0, 0, 0 ... 0, 0, 0]\nclass = Activision Hits: Remixed", fillcolor="#ffffff"] ;
164 -> 172 ;
173 [label="gini = 0.953\nsamples = 37\nvalue = [0, 0, 0 ... 0, 0, 0]\nclass = Activision Hits: Remixed", fillcolor="#ffffff"] ;
172 -> 173 ;
174 [label="gini = 0.0\nsamples = 1\nvalue = [0, 0, 0 ... 0, 0, 0]\nclass = Barbie: Groom and Glam Pups", fillcolor="#e5c839"] ;
172 -> 174 ;
175 [label="gini = 0.0\nsamples = 2\nvalue = [0, 0, 0 ... 0, 0, 0]\nclass = Sonic Riders: Zero Gravity", fillcolor="#e55839"] ;
157 -> 175 ;
176 [label="gini = 0.976\nsamples = 112\nvalue = [0, 0, 0 ... 0, 0, 0]\nclass = Bomberman Max 2: Blue Advance", fillcolor="#ffffff"] ;
156 -> 176 ;
177 [label="gini = 0.859\nsamples = 16\nvalue = [0, 0, 0 ... 0, 0, 0]\nclass = Bomberman Story DS", fillcolor="#fcfdf0"] ;
155 -> 177 ;
178 [label="Publisher <= 20.5\ngini = 0.903\nsamples = 24\nvalue = [0, 0, 0 ... 0, 0, 0]\nclass = All Kamen Rider: Rider Generation", fillcolor="#faeddb"] ;
28 -> 178 ;
179 [label="Publisher <= 0.5\ngini = 0.889\nsamples = 9\nvalue = [0, 0, 0 ... 0, 0, 0]\nclass = Anubis II", fillcolor="#ffffff"] ;
178 -> 179 ;
180 [label="gini = 0.0\nsamples = 1\nvalue = [0, 0, 0 ... 0, 0, 0]\nclass = Medarot: Kabuto / Kuwagata Version", fillcolor="#5039e5"] ;
179 -> 180 ;
181 [label="Publisher <= 2.5\ngini = 0.875\nsamples = 8\nvalue = [0, 0, 0 ... 0, 0, 0]\nclass = Anubis II", fillcolor="#ffffff"] ;
179 -> 181 ;
182 [label="gini = 0.0\nsamples = 1\nvalue = [0, 0, 0 ... 0, 0, 0]\nclass = Juiced", fillcolor="#3998e5"] ;
181 -> 182 ;
183 [label="Publisher <= 5.0\ngini = 0.857\nsamples = 7\nvalue = [0, 0, 0 ... 0, 0, 0]\nclass = Anubis II", fillcolor="#ffffff"] ;
181 -> 183 ;
184 [label="gini = 0.0\nsamples = 1\nvalue = [0, 0, 0 ... 0, 0, 0]\nclass = Anubis II", fillcolor="#e5a939"] ;
183 -> 184 ;
185 [label="Publisher <= 9.5\ngini = 0.833\nsamples = 6\nvalue = [0, 0, 0 ... 0, 0, 0]\nclass = Halo 5: Guardians", fillcolor="#ffffff"] ;
183 -> 185 ;
186 [label="gini = 0.0\nsamples = 1\nvalue = [0, 0, 0 ... 0, 0, 0]\nclass = Pokemon Trozei!", fillcolor="#e539c3"] ;
185 -> 186 ;
187 [label="Publisher <= 15.0\ngini = 0.8\nsamples = 5\nvalue = [0, 0, 0 ... 0, 0, 0]\nclass = Halo 5: Guardians", fillcolor="#ffffff"] ;
185 -> 187 ;
188 [label="gini = 0.0\nsamples = 1\nvalue = [0, 0, 0 ... 0, 0, 0]\nclass = Kanon", fillcolor="#398ce5"] ;
187 -> 188 ;
189 [label="Publisher <= 18.0\ngini = 0.75\nsamples = 4\nvalue = [0, 0, 0 ... 0, 0, 0]\nclass = Halo 5: Guardians", fillcolor="#ffffff"] ;
187 -> 189 ;
190 [label="gini = 0.5\nsamples = 2\nvalue = [0, 0, 0 ... 0, 0, 0]\nclass = Iron Man 2", fillcolor="#ffffff"] ;
189 -> 190 ;
191 [label="Publisher <= 19.5\ngini = 0.5\nsamples = 2\nvalue = [0, 0, 0 ... 0, 0, 0]\nclass = Halo 5: Guardians", fillcolor="#ffffff"] ;
189 -> 191 ;
192 [label="gini = 0.0\nsamples = 1\nvalue = [0, 0, 0 ... 0, 0, 0]\nclass = Major Dream: Major DS Dream Baseball", fillcolor="#3939e5"] ;
191 -> 192 ;
193 [label="gini = 0.0\nsamples = 1\nvalue = [0, 0, 0 ... 0, 0, 0]\nclass = Halo 5: Guardians", fillcolor="#39e5dc"] ;
191 -> 193 ;
194 [label="gini = 0.791\nsamples = 15\nvalue = [0, 0, 0 ... 0, 0, 0]\nclass = All Kamen Rider: Rider Generation", fillcolor="#f7e1c2"] ;
178 -> 194 ;
195 [label="Publisher <= 544.5\ngini = 1.0\nsamples = 10896\nvalue = [1, 1, 1 ... 2, 1, 0]\nclass = MX 2002 Featuring Ricky Carmichael", fillcolor="#ffffff"] ;
1 -> 195 ;
196 [label="Genre <= 0.5\ngini = 1.0\nsamples = 10777\nvalue = [1, 1, 1 ... 2, 1, 0]\nclass = MX 2002 Featuring Ricky Carmichael", fillcolor="#ffffff"] ;
195 -> 196 ;
197 [label="Publisher <= 140.0\ngini = 0.999\nsamples = 2088\nvalue = [0, 0, 0 ... 0, 0, 0]\nclass = My Baby Girl", fillcolor="#ffffff"] ;
196 -> 197 ;
198 [label="Publisher <= 137.5\ngini = 0.996\nsamples = 598\nvalue = [0, 0, 0 ... 0, 0, 0]\nclass = Finding Nemo: The Continuing Adventures", fillcolor="#ffffff"] ;
197 -> 198 ;
199 [label="Publisher <= 131.5\ngini = 0.995\nsamples = 452\nvalue = [0, 0, 0 ... 0, 0, 0]\nclass = Sansuu Puzzle de Migaku: Gakken Otona no Shikou Sense", fillcolor="#ffffff"] ;
198 -> 199 ;
200 [label="Publisher <= 124.0\ngini = 0.995\nsamples = 390\nvalue = [0, 0, 0 ... 0, 0, 0]\nclass = Meteos: Disney Magic", fillcolor="#fffeff"] ;
199 -> 200 ;
201 [label="Publisher <= 118.0\ngini = 0.994\nsamples = 319\nvalue = [0, 0, 0 ... 0, 0, 0]\nclass = NBA 2K2", fillcolor="#ffffff"] ;
200 -> 201 ;
202 [label="Publisher <= 108.0\ngini = 0.994\nsamples = 295\nvalue = [0, 0, 0 ... 0, 0, 0]\nclass = NBA 2K2", fillcolor="#ffffff"] ;
201 -> 202 ;
203 [label="Publisher <= 67.0\ngini = 0.993\nsamples = 245\nvalue = [0, 0, 0 ... 0, 0, 0]\nclass = NBA 2K2", fillcolor="#ffffff"] ;
202 -> 203 ;
204 [label="Publisher <= 64.5\ngini = 0.98\nsamples = 91\nvalue = [0, 0, 0 ... 0, 0, 0]\nclass = Resident Evil 6", fillcolor="#fffdfe"] ;
203 -> 204 ;
205 [label="Publisher <= 59.0\ngini = 0.982\nsamples = 75\nvalue = [0, 0, 0 ... 0, 0, 0]\nclass = Breath of Fire: Dragon Quarter", fillcolor="#ffffff"] ;
204 -> 205 ;
206 [label="Publisher <= 52.0\ngini = 0.98\nsamples = 65\nvalue = [0, 0, 0 ... 0, 0, 0]\nclass = F-Zero GX", fillcolor="#ffffff"] ;
205 -> 206 ;
207 [label="Publisher <= 25.0\ngini = 0.929\nsamples = 14\nvalue = [0, 0, 0 ... 0, 0, 0]\nclass = A. IV Evolution: A Ressha de Ikou 4", fillcolor="#ffffff"] ;
206 -> 207 ;
208 [label="gini = 0.0\nsamples = 1\nvalue = [0, 0, 0 ... 0, 0, 0]\nclass = SaGa 2: Hihou Densetsu - Goddess of Destiny", fillcolor="#e53964"] ;
207 -> 208 ;
209 [label="Publisher <= 26.5\ngini = 0.923\nsamples = 13\nvalue = [0, 0, 0 ... 0, 0, 0]\nclass = A. IV Evolution: A Ressha de Ikou 4", fillcolor="#ffffff"] ;
207 -> 209 ;
210 [label="gini = 0.0\nsamples = 1\nvalue = [0, 0, 0 ... 0, 0, 0]\nclass = Capcom Classics Collection Reloaded", fillcolor="#c0e539"] ;
209 -> 210 ;
211 [label="Publisher <= 27.5\ngini = 0.917\nsamples = 12\nvalue = [0, 0, 0 ... 0, 0, 0]\nclass = A. IV Evolution: A Ressha de Ikou 4", fillcolor="#ffffff"] ;
209 -> 211 ;
212 [label="gini = 0.5\nsamples = 2\nvalue = [0, 0, 0 ... 0, 0, 0]\nclass = Custom Robo", fillcolor="#ffffff"] ;
211 -> 212 ;
213 [label="Publisher <= 28.5\ngini = 0.9\nsamples = 10\nvalue = [0, 0, 0 ... 0, 0, 0]\nclass = A. IV Evolution: A Ressha de Ikou 4", fillcolor="#ffffff"] ;
211 -> 213 ;
214 [label="gini = 0.0\nsamples = 1\nvalue = [0, 0, 0 ... 0, 0, 0]\nclass = One Piece: Pirate Warriors 2", fillcolor="#d439e5"] ;
213 -> 214 ;
215 [label="Publisher <= 29.5\ngini = 0.889\nsamples = 9\nvalue = [0, 0, 0 ... 0, 0, 0]\nclass = A. IV Evolution: A Ressha de Ikou 4", fillcolor="#ffffff"] ;
213 -> 215 ;
216 [label="gini = 0.0\nsamples = 1\nvalue = [0, 0, 0 ... 0, 0, 0]\nclass = Mega Brain Boost", fillcolor="#5039e5"] ;
215 -> 216 ;
217 [label="Publisher <= 30.5\ngini = 0.875\nsamples = 8\nvalue = [0, 0, 0 ... 0, 0, 0]\nclass = A. IV Evolution: A Ressha de Ikou 4", fillcolor="#ffffff"] ;
215 -> 217 ;
218 [label="gini = 0.5\nsamples = 2\nvalue = [0, 0, 0 ... 0, 0, 0]\nclass = Mage Knight: Destiny's Soldier", fillcolor="#ffffff"] ;
217 -> 218 ;
219 [label="Publisher <= 32.5\ngini = 0.833\nsamples = 6\nvalue = [0, 0, 0 ... 0, 0, 0]\nclass = A. IV Evolution: A Ressha de Ikou 4", fillcolor="#ffffff"] ;
217 -> 219 ;
220 [label="gini = 0.0\nsamples = 1\nvalue = [0, 0, 0 ... 0, 0, 0]\nclass = NHL 99", fillcolor="#a939e5"] ;
219 -> 220 ;
221 [label="Publisher <= 35.0\ngini = 0.8\nsamples = 5\nvalue = [0, 0, 0 ... 0, 0, 0]\nclass = A. IV Evolution: A Ressha de Ikou 4", fillcolor="#ffffff"] ;
219 -> 221 ;
222 [label="gini = 0.0\nsamples = 1\nvalue = [0, 0, 0 ... 0, 0, 0]\nclass = Mega Man X3", fillcolor="#5339e5"] ;
221 -> 222 ;
223 [label="Publisher <= 41.5\ngini = 0.75\nsamples = 4\nvalue = [0, 0, 0 ... 0, 0, 0]\nclass = A. IV Evolution: A Ressha de Ikou 4", fillcolor="#ffffff"] ;
221 -> 223 ;
224 [label="gini = 0.0\nsamples = 1\nvalue = [0, 0, 0 ... 0, 0, 0]\nclass = Everybody Dance", fillcolor="#39e567"] ;
223 -> 224 ;
225 [label="Publisher <= 49.0\ngini = 0.667\nsamples = 3\nvalue = [0, 0, 0 ... 0, 0, 0]\nclass = A. IV Evolution: A Ressha de Ikou 4", fillcolor="#ffffff"] ;
223 -> 225 ;
226 [label="gini = 0.5\nsamples = 2\nvalue = [0, 0, 0 ... 0, 0, 0]\nclass = A. IV Evolution: A Ressha de Ikou 4", fillcolor="#ffffff"] ;
225 -> 226 ;
227 [label="gini = 0.0\nsamples = 1\nvalue = [0, 0, 0 ... 0, 0, 0]\nclass = Goldeneye 007: Reloaded", fillcolor="#39e5c3"] ;
225 -> 227 ;
228 [label="Publisher <= 54.5\ngini = 0.973\nsamples = 51\nvalue = [0, 0, 0 ... 0, 0, 0]\nclass = F-Zero GX", fillcolor="#ffffff"] ;
206 -> 228 ;
229 [label="gini = 0.965\nsamples = 42\nvalue = [0, 0, 0 ... 0, 0, 0]\nclass = F-Zero GX", fillcolor="#ffffff"] ;
228 -> 229 ;
230 [label="Publisher <= 56.5\ngini = 0.889\nsamples = 9\nvalue = [0, 0, 0 ... 0, 0, 0]\nclass = 1 vs. 100", fillcolor="#ffffff"] ;
228 -> 230 ;
231 [label="gini = 0.0\nsamples = 1\nvalue = [0, 0, 0 ... 0, 0, 0]\nclass = Contender 2", fillcolor="#98e539"] ;
230 -> 231 ;
232 [label="Publisher <= 57.5\ngini = 0.875\nsamples = 8\nvalue = [0, 0, 0 ... 0, 0, 0]\nclass = 1 vs. 100", fillcolor="#ffffff"] ;
230 -> 232 ;
233 [label="gini = 0.75\nsamples = 4\nvalue = [0, 0, 0 ... 0, 0, 0]\nclass = 1 vs. 100", fillcolor="#ffffff"] ;
232 -> 233 ;
234 [label="gini = 0.75\nsamples = 4\nvalue = [0, 0, 0 ... 0, 0, 0]\nclass = Duke Nukem: Total Meltdown", fillcolor="#ffffff"] ;
232 -> 234 ;
235 [label="Publisher <= 61.5\ngini = 0.82\nsamples = 10\nvalue = [0, 0, 0 ... 0, 0, 0]\nclass = Breath of Fire: Dragon Quarter", fillcolor="#fafce6"] ;
205 -> 235 ;
236 [label="gini = 0.75\nsamples = 8\nvalue = [0, 0, 0 ... 0, 0, 0]\nclass = Breath of Fire: Dragon Quarter", fillcolor="#f8fbde"] ;
235 -> 236 ;
237 [label="gini = 0.5\nsamples = 2\nvalue = [0, 0, 0 ... 0, 0, 0]\nclass = Hamster Heroes", fillcolor="#ffffff"] ;
235 -> 237 ;
238 [label="gini = 0.766\nsamples = 16\nvalue = [0, 0, 0 ... 0, 0, 0]\nclass = Resident Evil 6", fillcolor="#fdeef5"] ;
204 -> 238 ;
239 [label="Publisher <= 89.5\ngini = 0.989\nsamples = 154\nvalue = [0, 0, 0 ... 0, 0, 0]\nclass = NBA 2K2", fillcolor="#fefeff"] ;
203 -> 239 ;
240 [label="Publisher <= 84.0\ngini = 0.986\nsamples = 129\nvalue = [0, 0, 0 ... 0, 0, 0]\nclass = NBA 2K2", fillcolor="#fefdff"] ;
239 -> 240 ;
241 [label="Publisher <= 69.0\ngini = 0.889\nsamples = 9\nvalue = [0, 0, 0 ... 0, 0, 0]\nclass = AMF Bowling World Lanes", fillcolor="#ffffff"] ;
240 -> 241 ;
242 [label="gini = 0.0\nsamples = 1\nvalue = [0, 0, 0 ... 0, 0, 0]\nclass = Hyperdevotion Noire: Goddess Black Heart", fillcolor="#39c8e5"] ;
241 -> 242 ;
243 [label="Publisher <= 70.5\ngini = 0.875\nsamples = 8\nvalue = [0, 0, 0 ... 0, 0, 0]\nclass = AMF Bowling World Lanes", fillcolor="#ffffff"] ;
241 -> 243 ;
244 [label="gini = 0.0\nsamples = 1\nvalue = [0, 0, 0 ... 0, 0, 0]\nclass = Hexen: Beyond Heretic", fillcolor="#39dce5"] ;
243 -> 244 ;
245 [label="Publisher <= 71.5\ngini = 0.857\nsamples = 7\nvalue = [0, 0, 0 ... 0, 0, 0]\nclass = AMF Bowling World Lanes", fillcolor="#ffffff"] ;
243 -> 245 ;
246 [label="gini = 0.0\nsamples = 1\nvalue = [0, 0, 0 ... 0, 0, 0]\nclass = Rock of the Dead", fillcolor="#e5397b"] ;
245 -> 246 ;
247 [label="Publisher <= 75.0\ngini = 0.833\nsamples = 6\nvalue = [0, 0, 0 ... 0, 0, 0]\nclass = AMF Bowling World Lanes", fillcolor="#ffffff"] ;
245 -> 247 ;
248 [label="gini = 0.5\nsamples = 2\nvalue = [0, 0, 0 ... 0, 0, 0]\nclass = EverQuest Online Adventures", fillcolor="#ffffff"] ;
247 -> 248 ;
249 [label="Publisher <= 80.5\ngini = 0.75\nsamples = 4\nvalue = [0, 0, 0 ... 0, 0, 0]\nclass = AMF Bowling World Lanes", fillcolor="#ffffff"] ;
247 -> 249 ;
250 [label="gini = 0.667\nsamples = 3\nvalue = [0, 0, 0 ... 0, 0, 0]\nclass = Joint Operations: Combined Arms", fillcolor="#ffffff"] ;
249 -> 250 ;
251 [label="gini = 0.0\nsamples = 1\nvalue = [0, 0, 0 ... 0, 0, 0]\nclass = AMF Bowling World Lanes", fillcolor="#e58c39"] ;
249 -> 251 ;
252 [label="Publisher <= 86.0\ngini = 0.985\nsamples = 120\nvalue = [0, 0, 0 ... 0, 0, 0]\nclass = NBA 2K2", fillcolor="#fefdff"] ;
240 -> 252 ;
253 [label="gini = 0.984\nsamples = 118\nvalue = [0, 0, 0 ... 0, 0, 0]\nclass = NBA 2K2", fillcolor="#fefdff"] ;
252 -> 253 ;
254 [label="Publisher <= 87.5\ngini = 0.5\nsamples = 2\nvalue = [0, 0, 0 ... 0, 0, 0]\nclass = Buzz! The Music Quiz", fillcolor="#ffffff"] ;
252 -> 254 ;
255 [label="gini = 0.0\nsamples = 1\nvalue = [0, 0, 0 ... 0, 0, 0]\nclass = Story of Seasons", fillcolor="#e57b39"] ;
254 -> 255 ;
256 [label="gini = 0.0\nsamples = 1\nvalue = [0, 0, 0 ... 0, 0, 0]\nclass = Buzz! The Music Quiz", fillcolor="#c8e539"] ;
254 -> 256 ;
257 [label="Publisher <= 92.0\ngini = 0.944\nsamples = 25\nvalue = [0, 0, 0 ... 0, 0, 0]\nclass = Master of Illusion", fillcolor="#f7f6fe"] ;
239 -> 257 ;
258 [label="gini = 0.75\nsamples = 8\nvalue = [0, 0, 0 ... 0, 0, 0]\nclass = Master of Illusion", fillcolor="#e0defb"] ;
257 -> 258 ;
259 [label="Publisher <= 100.5\ngini = 0.934\nsamples = 17\nvalue = [0, 0, 0 ... 0, 0, 0]\nclass = Barnyard Blast: Swine of the Night", fillcolor="#fdfcf3"] ;
257 -> 259 ;
260 [label="Publisher <= 93.5\ngini = 0.9\nsamples = 10\nvalue = [0, 0, 0 ... 0, 0, 0]\nclass = Amped: Freestyle Snowboarding", fillcolor="#ffffff"] ;
259 -> 260 ;
261 [label="gini = 0.0\nsamples = 1\nvalue = [0, 0, 0 ... 0, 0, 0]\nclass = Dead Rising", fillcolor="#6fe539"] ;
260 -> 261 ;
262 [label="Publisher <= 94.5\ngini = 0.889\nsamples = 9\nvalue = [0, 0, 0 ... 0, 0, 0]\nclass = Amped: Freestyle Snowboarding", fillcolor="#ffffff"] ;
260 -> 262 ;
263 [label="gini = 0.667\nsamples = 3\nvalue = [0, 0, 0 ... 0, 0, 0]\nclass = Kirby Air Ride", fillcolor="#ffffff"] ;
262 -> 263 ;
264 [label="Publisher <= 96.5\ngini = 0.833\nsamples = 6\nvalue = [0, 0, 0 ... 0, 0, 0]\nclass = Amped: Freestyle Snowboarding", fillcolor="#ffffff"] ;
262 -> 264 ;
265 [label="gini = 0.0\nsamples = 1\nvalue = [0, 0, 0 ... 0, 0, 0]\nclass = Amped: Freestyle Snowboarding", fillcolor="#e5a339"] ;
264 -> 265 ;
266 [label="Publisher <= 98.5\ngini = 0.8\nsamples = 5\nvalue = [0, 0, 0 ... 0, 0, 0]\nclass = Chaos Rings III", fillcolor="#ffffff"] ;
264 -> 266 ;
267 [label="gini = 0.5\nsamples = 2\nvalue = [0, 0, 0 ... 0, 0, 0]\nclass = Combat", fillcolor="#ffffff"] ;
266 -> 267 ;
268 [label="Publisher <= 99.5\ngini = 0.667\nsamples = 3\nvalue = [0, 0, 0 ... 0, 0, 0]\nclass = Chaos Rings III", fillcolor="#ffffff"] ;
266 -> 268 ;
269 [label="gini = 0.5\nsamples = 2\nvalue = [0, 0, 0 ... 0, 0, 0]\nclass = Chaos Rings III", fillcolor="#ffffff"] ;
268 -> 269 ;
270 [label="gini = 0.0\nsamples = 1\nvalue = [0, 0, 0 ... 0, 0, 0]\nclass = Nobunaga's Ambition II", fillcolor="#cb39e5"] ;
268 -> 270 ;
271 [label="Publisher <= 102.0\ngini = 0.816\nsamples = 7\nvalue = [0, 0, 0 ... 0, 0, 0]\nclass = Barnyard Blast: Swine of the Night", fillcolor="#fbf6de"] ;
259 -> 271 ;
272 [label="gini = 0.72\nsamples = 5\nvalue = [0, 0, 0 ... 0, 0, 0]\nclass = Barnyard Blast: Swine of the Night", fillcolor="#f8f1ce"] ;
271 -> 272 ;
273 [label="Publisher <= 105.0\ngini = 0.5\nsamples = 2\nvalue = [0, 0, 0 ... 0, 0, 0]\nclass = Night Head: The Labyrinth", fillcolor="#ffffff"] ;
271 -> 273 ;
274 [label="gini = 0.0\nsamples = 1\nvalue = [0, 0, 0 ... 0, 0, 0]\nclass = Reel Fishing II", fillcolor="#e5398c"] ;
273 -> 274 ;
275 [label="gini = 0.0\nsamples = 1\nvalue = [0, 0, 0 ... 0, 0, 0]\nclass = Night Head: The Labyrinth", fillcolor="#c339e5"] ;
273 -> 275 ;
276 [label="Publisher <= 111.5\ngini = 0.96\nsamples = 50\nvalue = [0, 0, 0 ... 0, 0, 0]\nclass = Band Hero", fillcolor="#ffffff"] ;
202 -> 276 ;
277 [label="Publisher <= 110.0\ngini = 0.954\nsamples = 45\nvalue = [0, 0, 0 ... 0, 0, 0]\nclass = Band Hero", fillcolor="#ffffff"] ;
276 -> 277 ;
278 [label="gini = 0.952\nsamples = 44\nvalue = [0, 0, 0 ... 0, 0, 0]\nclass = Band Hero", fillcolor="#ffffff"] ;
277 -> 278 ;
279 [label="gini = 0.0\nsamples = 1\nvalue = [0, 0, 0 ... 0, 0, 0]\nclass = HotBrain", fillcolor="#39cbe5"] ;
277 -> 279 ;
280 [label="Publisher <= 114.0\ngini = 0.72\nsamples = 5\nvalue = [0, 0, 0 ... 0, 0, 0]\nclass = Rengoku: The Tower of Purgatory", fillcolor="#f8cee2"] ;
276 -> 280 ;
281 [label="gini = 0.625\nsamples = 4\nvalue = [0, 0, 0 ... 0, 0, 0]\nclass = Rengoku: The Tower of Purgatory", fillcolor="#f6bdd8"] ;
280 -> 281 ;
282 [label="gini = 0.0\nsamples = 1\nvalue = [0, 0, 0 ... 0, 0, 0]\nclass = Adventures of Tron", fillcolor="#e59239"] ;
280 -> 282 ;
283 [label="Publisher <= 121.5\ngini = 0.91\nsamples = 24\nvalue = [0, 0, 0 ... 0, 0, 0]\nclass = Naruto: Gekito Ninja Taisen! 4", fillcolor="#fbf6fe"] ;
201 -> 283 ;
284 [label="Publisher <= 120.5\ngini = 0.89\nsamples = 20\nvalue = [0, 0, 0 ... 0, 0, 0]\nclass = Naruto: Gekito Ninja Taisen! 4", fillcolor="#fbf3fd"] ;
283 -> 284 ;
285 [label="gini = 0.87\nsamples = 18\nvalue = [0, 0, 0 ... 0, 0, 0]\nclass = Naruto: Gekito Ninja Taisen! 4", fillcolor="#faf2fd"] ;
284 -> 285 ;
286 [label="gini = 0.5\nsamples = 2\nvalue = [0, 0, 0 ... 0, 0, 0]\nclass = Martian Panic", fillcolor="#ffffff"] ;
284 -> 286 ;
287 [label="gini = 0.5\nsamples = 4\nvalue = [0, 0, 0 ... 0, 0, 0]\nclass = Bleach: The 3rd Phantom", fillcolor="#ffffff"] ;
283 -> 287 ;
288 [label="gini = 0.955\nsamples = 71\nvalue = [0, 0, 0 ... 0, 0, 0]\nclass = Meteos: Disney Magic", fillcolor="#fdfcff"] ;
200 -> 288 ;
289 [label="gini = 0.951\nsamples = 62\nvalue = [0, 0, 0 ... 0, 0, 0]\nclass = Sansuu Puzzle de Migaku: Gakken Otona no Shikou Sense", fillcolor="#fef8f9"] ;
199 -> 289 ;
290 [label="gini = 0.977\nsamples = 146\nvalue = [0, 0, 0 ... 0, 0, 0]\nclass = Finding Nemo: The Continuing Adventures", fillcolor="#fefffe"] ;
198 -> 290 ;
291 [label="Publisher <= 516.0\ngini = 0.999\nsamples = 1490\nvalue = [0, 0, 0 ... 0, 0, 0]\nclass = My Baby Girl", fillcolor="#ffffff"] ;
197 -> 291 ;
292 [label="Publisher <= 487.0\ngini = 0.999\nsamples = 1282\nvalue = [0, 0, 0 ... 0, 0, 0]\nclass = My Baby Girl", fillcolor="#ffffff"] ;
291 -> 292 ;
293 [label="Publisher <= 463.5\ngini = 0.998\nsamples = 933\nvalue = [0, 0, 0 ... 0, 0, 0]\nclass = Himawari: Pebble in the Sky Portable", fillcolor="#ffffff"] ;
292 -> 293 ;
294 [label="Publisher <= 289.5\ngini = 0.998\nsamples = 878\nvalue = [0, 0, 0 ... 0, 0, 0]\nclass = Himawari: Pebble in the Sky Portable", fillcolor="#ffffff"] ;
293 -> 294 ;
295 [label="Publisher <= 287.0\ngini = 0.994\nsamples = 300\nvalue = [0, 0, 0 ... 0, 0, 0]\nclass = Himawari: Pebble in the Sky Portable", fillcolor="#ffffff"] ;
294 -> 295 ;
296 [label="Publisher <= 284.5\ngini = 0.994\nsamples = 264\nvalue = [0, 0, 0 ... 0, 0, 0]\nclass = Aa Megami-samaa", fillcolor="#fffffe"] ;
295 -> 296 ;
297 [label="Publisher <= 274.0\ngini = 0.994\nsamples = 250\nvalue = [0, 0, 0 ... 0, 0, 0]\nclass = Monster 4x4: Stunt Racer", fillcolor="#ffffff"] ;
296 -> 297 ;
298 [label="Publisher <= 271.0\ngini = 0.991\nsamples = 127\nvalue = [0, 0, 0 ... 0, 0, 0]\nclass = Banjo-Pilot", fillcolor="#fffffd"] ;
297 -> 298 ;
299 [label="Publisher <= 267.0\ngini = 0.991\nsamples = 124\nvalue = [0, 0, 0 ... 0, 0, 0]\nclass = Attack on Titan (KOEI)", fillcolor="#ffffff"] ;
298 -> 299 ;
300 [label="Publisher <= 263.5\ngini = 0.991\nsamples = 119\nvalue = [0, 0, 0 ... 0, 0, 0]\nclass = Bastard!! Utsuro Naru Kamigami no Utsuwa", fillcolor="#ffffff"] ;
299 -> 300 ;
301 [label="Publisher <= 179.5\ngini = 0.99\nsamples = 114\nvalue = [0, 0, 0 ... 0, 0, 0]\nclass = Bastard!! Utsuro Naru Kamigami no Utsuwa", fillcolor="#ffffff"] ;
300 -> 301 ;
302 [label="Publisher <= 168.5\ngini = 0.964\nsamples = 33\nvalue = [0, 0, 0 ... 0, 0, 0]\nclass = Bastard!! Utsuro Naru Kamigami no Utsuwa", fillcolor="#ffffff"] ;
301 -> 302 ;
303 [label="Publisher <= 142.5\ngini = 0.955\nsamples = 22\nvalue = [0, 0, 0 ... 0, 0, 0]\nclass = Bleach: Soul Carnival 2", fillcolor="#ffffff"] ;
302 -> 303 ;
304 [label="gini = 0.667\nsamples = 3\nvalue = [0, 0, 0 ... 0, 0, 0]\nclass = Ford Racing 3", fillcolor="#ffffff"] ;
303 -> 304 ;
305 [label="Publisher <= 143.5\ngini = 0.947\nsamples = 19\nvalue = [0, 0, 0 ... 0, 0, 0]\nclass = Bleach: Soul Carnival 2", fillcolor="#ffffff"] ;
303 -> 305 ;
306 [label="gini = 0.0\nsamples = 1\nvalue = [0, 0, 0 ... 0, 0, 0]\nclass = StormLover Karen!!", fillcolor="#e57b39"] ;
305 -> 306 ;
307 [label="Publisher <= 147.0\ngini = 0.944\nsamples = 18\nvalue = [0, 0, 0 ... 0, 0, 0]\nclass = Bleach: Soul Carnival 2", fillcolor="#ffffff"] ;
305 -> 307 ;
308 [label="gini = 0.0\nsamples = 1\nvalue = [0, 0, 0 ... 0, 0, 0]\nclass = NCAA Football 10", fillcolor="#9d39e5"] ;
307 -> 308 ;
309 [label="Publisher <= 150.5\ngini = 0.941\nsamples = 17\nvalue = [0, 0, 0 ... 0, 0, 0]\nclass = Bleach: Soul Carnival 2", fillcolor="#ffffff"] ;
307 -> 309 ;
310 [label="gini = 0.0\nsamples = 1\nvalue = [0, 0, 0 ... 0, 0, 0]\nclass = Stranger of Sword City", fillcolor="#e57b39"] ;
309 -> 310 ;
311 [label="Publisher <= 152.0\ngini = 0.938\nsamples = 16\nvalue = [0, 0, 0 ... 0, 0, 0]\nclass = Bleach: Soul Carnival 2", fillcolor="#ffffff"] ;
309 -> 311 ;
312 [label="gini = 0.0\nsamples = 1\nvalue = [0, 0, 0 ... 0, 0, 0]\nclass = Mass Effect Trilogy", fillcolor="#4739e5"] ;
311 -> 312 ;
313 [label="Publisher <= 155.5\ngini = 0.933\nsamples = 15\nvalue = [0, 0, 0 ... 0, 0, 0]\nclass = Bleach: Soul Carnival 2", fillcolor="#ffffff"] ;
311 -> 313 ;
314 [label="gini = 0.0\nsamples = 1\nvalue = [0, 0, 0 ... 0, 0, 0]\nclass = Dragon Quest Monsters: Joker", fillcolor="#39e53f"] ;
313 -> 314 ;
315 [label="Publisher <= 159.0\ngini = 0.929\nsamples = 14\nvalue = [0, 0, 0 ... 0, 0, 0]\nclass = Bleach: Soul Carnival 2", fillcolor="#ffffff"] ;
313 -> 315 ;
316 [label="gini = 0.0\nsamples = 1\nvalue = [0, 0, 0 ... 0, 0, 0]\nclass = Predator: Concrete Jungle", fillcolor="#e539b7"] ;
315 -> 316 ;
317 [label="Publisher <= 162.5\ngini = 0.923\nsamples = 13\nvalue = [0, 0, 0 ... 0, 0, 0]\nclass = Bleach: Soul Carnival 2", fillcolor="#ffffff"] ;
315 -> 317 ;
318 [label="gini = 0.0\nsamples = 1\nvalue = [0, 0, 0 ... 0, 0, 0]\nclass = Dragon Quest Monsters: Caravan Heart", fillcolor="#39e53c"] ;
317 -> 318 ;
319 [label="Publisher <= 165.5\ngini = 0.917\nsamples = 12\nvalue = [0, 0, 0 ... 0, 0, 0]\nclass = Bleach: Soul Carnival 2", fillcolor="#ffffff"] ;
317 -> 319 ;
320 [label="gini = 0.5\nsamples = 2\nvalue = [0, 0, 0 ... 0, 0, 0]\nclass = Elements of Destruction", fillcolor="#ffffff"] ;
319 -> 320 ;
321 [label="Publisher <= 166.5\ngini = 0.9\nsamples = 10\nvalue = [0, 0, 0 ... 0, 0, 0]\nclass = Bleach: Soul Carnival 2", fillcolor="#ffffff"] ;
319 -> 321 ;
322 [label="gini = 0.889\nsamples = 9\nvalue = [0, 0, 0 ... 0, 0, 0]\nclass = Bleach: Soul Carnival 2", fillcolor="#ffffff"] ;
321 -> 322 ;
323 [label="gini = 0.0\nsamples = 1\nvalue = [0, 0, 0 ... 0, 0, 0]\nclass = Hot Shots Golf: Open Tee", fillcolor="#39cee5"] ;
321 -> 323 ;
324 [label="Publisher <= 173.5\ngini = 0.86\nsamples = 11\nvalue = [0, 0, 0 ... 0, 0, 0]\nclass = Bastard!! Utsuro Naru Kamigami no Utsuwa", fillcolor="#ffffff"] ;
302 -> 324 ;
325 [label="gini = 0.0\nsamples = 2\nvalue = [0, 0, 0 ... 0, 0, 0]\nclass = Mario vs. Donkey Kong", fillcolor="#4139e5"] ;
324 -> 325 ;
326 [label="gini = 0.84\nsamples = 9\nvalue = [0, 0, 0 ... 0, 0, 0]\nclass = Bastard!! Utsuro Naru Kamigami no Utsuwa", fillcolor="#ffffff"] ;
324 -> 326 ;
327 [label="Publisher <= 183.0\ngini = 0.987\nsamples = 81\nvalue = [0, 0, 0 ... 0, 0, 0]\nclass = Canimal Triple", fillcolor="#ffffff"] ;
301 -> 327 ;
328 [label="gini = 0.816\nsamples = 7\nvalue = [0, 0, 0 ... 0, 0, 0]\nclass = Canimal Triple", fillcolor="#f4fbde"] ;
327 -> 328 ;
329 [label="Publisher <= 231.5\ngini = 0.986\nsamples = 74\nvalue = [0, 0, 0 ... 0, 0, 0]\nclass = Disney Tangled", fillcolor="#ffffff"] ;
327 -> 329 ;
330 [label="Publisher <= 185.0\ngini = 0.979\nsamples = 48\nvalue = [0, 0, 0 ... 0, 0, 0]\nclass = Age of Empires: Mythologies", fillcolor="#ffffff"] ;
329 -> 330 ;
331 [label="gini = 0.667\nsamples = 3\nvalue = [0, 0, 0 ... 0, 0, 0]\nclass = Center Ring Boxing", fillcolor="#ffffff"] ;
330 -> 331 ;
332 [label="Publisher <= 186.5\ngini = 0.978\nsamples = 45\nvalue = [0, 0, 0 ... 0, 0, 0]\nclass = Age of Empires: Mythologies", fillcolor="#ffffff"] ;
330 -> 332 ;
333 [label="gini = 0.0\nsamples = 1\nvalue = [0, 0, 0 ... 0, 0, 0]\nclass = Smashing Drive", fillcolor="#e55039"] ;
332 -> 333 ;
334 [label="Publisher <= 189.0\ngini = 0.977\nsamples = 44\nvalue = [0, 0, 0 ... 0, 0, 0]\nclass = Age of Empires: Mythologies", fillcolor="#ffffff"] ;
332 -> 334 ;
335 [label="gini = 0.0\nsamples = 1\nvalue = [0, 0, 0 ... 0, 0, 0]\nclass = Gekido", fillcolor="#39e5b1"] ;
334 -> 335 ;
336 [label="Publisher <= 193.0\ngini = 0.977\nsamples = 43\nvalue = [0, 0, 0 ... 0, 0, 0]\nclass = Age of Empires: Mythologies", fillcolor="#ffffff"] ;
334 -> 336 ;
337 [label="gini = 0.5\nsamples = 2\nvalue = [0, 0, 0 ... 0, 0, 0]\nclass = Elminage III: Ankoku no Shito to Yaiyou no Kyuuden", fillcolor="#ffffff"] ;
336 -> 337 ;
338 [label="Publisher <= 199.0\ngini = 0.976\nsamples = 41\nvalue = [0, 0, 0 ... 0, 0, 0]\nclass = Age of Empires: Mythologies", fillcolor="#ffffff"] ;
336 -> 338 ;
339 [label="gini = 0.0\nsamples = 1\nvalue = [0, 0, 0 ... 0, 0, 0]\nclass = Mark Davis Pro Bass Challenge", fillcolor="#4439e5"] ;
338 -> 339 ;
340 [label="Publisher <= 204.5\ngini = 0.975\nsamples = 40\nvalue = [0, 0, 0 ... 0, 0, 0]\nclass = Age of Empires: Mythologies", fillcolor="#ffffff"] ;
338 -> 340 ;
341 [label="gini = 0.0\nsamples = 1\nvalue = [0, 0, 0 ... 0, 0, 0]\nclass = NASCAR 2005: Chase for the Cup", fillcolor="#9239e5"] ;
340 -> 341 ;
342 [label="Publisher <= 208.5\ngini = 0.974\nsamples = 39\nvalue = [0, 0, 0 ... 0, 0, 0]\nclass = Age of Empires: Mythologies", fillcolor="#ffffff"] ;
340 -> 342 ;
343 [label="gini = 0.5\nsamples = 2\nvalue = [0, 0, 0 ... 0, 0, 0]\nclass = Dance on Broadway", fillcolor="#ffffff"] ;
342 -> 343 ;
344 [label="Publisher <= 212.5\ngini = 0.973\nsamples = 37\nvalue = [0, 0, 0 ... 0, 0, 0]\nclass = Age of Empires: Mythologies", fillcolor="#ffffff"] ;
342 -> 344 ;
345 [label="gini = 0.0\nsamples = 1\nvalue = [0, 0, 0 ... 0, 0, 0]\nclass = Amnesia", fillcolor="#e5a339"] ;
344 -> 345 ;
346 [label="Publisher <= 217.5\ngini = 0.972\nsamples = 36\nvalue = [0, 0, 0 ... 0, 0, 0]\nclass = Age of Empires: Mythologies", fillcolor="#ffffff"] ;
344 -> 346 ;
347 [label="gini = 0.5\nsamples = 2\nvalue = [0, 0, 0 ... 0, 0, 0]\nclass = ESPN NHL 2K5", fillcolor="#ffffff"] ;
346 -> 347 ;
348 [label="Publisher <= 222.5\ngini = 0.971\nsamples = 34\nvalue = [0, 0, 0 ... 0, 0, 0]\nclass = Age of Empires: Mythologies", fillcolor="#ffffff"] ;
346 -> 348 ;
349 [label="gini = 0.5\nsamples = 2\nvalue = [0, 0, 0 ... 0, 0, 0]\nclass = Mega Man & Bass", fillcolor="#ffffff"] ;
348 -> 349 ;
350 [label="Publisher <= 225.0\ngini = 0.969\nsamples = 32\nvalue = [0, 0, 0 ... 0, 0, 0]\nclass = Age of Empires: Mythologies", fillcolor="#ffffff"] ;
348 -> 350 ;
351 [label="gini = 0.75\nsamples = 4\nvalue = [0, 0, 0 ... 0, 0, 0]\nclass = Beijing 2008", fillcolor="#ffffff"] ;
350 -> 351 ;
352 [label="Publisher <= 227.0\ngini = 0.964\nsamples = 28\nvalue = [0, 0, 0 ... 0, 0, 0]\nclass = Age of Empires: Mythologies", fillcolor="#ffffff"] ;
350 -> 352 ;
353 [label="gini = 0.0\nsamples = 1\nvalue = [0, 0, 0 ... 0, 0, 0]\nclass = Ghost Trick: Phantom Detective", fillcolor="#39e5b7"] ;
352 -> 353 ;
354 [label="Publisher <= 229.0\ngini = 0.963\nsamples = 27\nvalue = [0, 0, 0 ... 0, 0, 0]\nclass = Age of Empires: Mythologies", fillcolor="#ffffff"] ;
352 -> 354 ;
355 [label="gini = 0.0\nsamples = 1\nvalue = [0, 0, 0 ... 0, 0, 0]\nclass = Age of Empires: Mythologies", fillcolor="#e59839"] ;
354 -> 355 ;
356 [label="Publisher <= 230.5\ngini = 0.962\nsamples = 26\nvalue = [0, 0, 0 ... 0, 0, 0]\nclass = Art of Fighting Anthology", fillcolor="#ffffff"] ;
354 -> 356 ;
357 [label="gini = 0.958\nsamples = 24\nvalue = [0, 0, 0 ... 0, 0, 0]\nclass = Art of Fighting Anthology", fillcolor="#ffffff"] ;
356 -> 357 ;
358 [label="gini = 0.5\nsamples = 2\nvalue = [0, 0, 0 ... 0, 0, 0]\nclass = Gabrielle's Ghostly Groove 3D", fillcolor="#ffffff"] ;
356 -> 358 ;
359 [label="Publisher <= 234.5\ngini = 0.956\nsamples = 26\nvalue = [0, 0, 0 ... 0, 0, 0]\nclass = Disney Tangled", fillcolor="#ffffff"] ;
329 -> 359 ;
360 [label="gini = 0.0\nsamples = 2\nvalue = [0, 0, 0 ... 0, 0, 0]\nclass = Disney Tangled", fillcolor="#50e539"] ;
359 -> 360 ;
361 [label="Publisher <= 244.0\ngini = 0.955\nsamples = 24\nvalue = [0, 0, 0 ... 0, 0, 0]\nclass = Parodius", fillcolor="#fef6fe"] ;
359 -> 361 ;
362 [label="Publisher <= 241.5\ngini = 0.778\nsamples = 6\nvalue = [0, 0, 0 ... 0, 0, 0]\nclass = Parodius", fillcolor="#fad7f9"] ;
361 -> 362 ;
363 [label="Publisher <= 239.0\ngini = 0.75\nsamples = 4\nvalue = [0, 0, 0 ... 0, 0, 0]\nclass = Densha de Go! Shinkansen EX: Sanyou Shinkansen-hen", fillcolor="#ffffff"] ;
362 -> 363 ;
364 [label="gini = 0.0\nsamples = 1\nvalue = [0, 0, 0 ... 0, 0, 0]\nclass = Densha de Go! Shinkansen EX: Sanyou Shinkansen-hen", fillcolor="#67e539"] ;
363 -> 364 ;
365 [label="gini = 0.667\nsamples = 3\nvalue = [0, 0, 0 ... 0, 0, 0]\nclass = Donkey Kong Barrel Blast", fillcolor="#ffffff"] ;
363 -> 365 ;
366 [label="gini = 0.0\nsamples = 2\nvalue = [0, 0, 0 ... 0, 0, 0]\nclass = Parodius", fillcolor="#e539df"] ;
362 -> 366 ;
367 [label="Publisher <= 247.5\ngini = 0.944\nsamples = 18\nvalue = [0, 0, 0 ... 0, 0, 0]\nclass = Armored Core: Verdict Day", fillcolor="#ffffff"] ;
361 -> 367 ;
368 [label="gini = 0.833\nsamples = 6\nvalue = [0, 0, 0 ... 0, 0, 0]\nclass = Choujikuu Yousai Macross: Do You Remember Love", fillcolor="#ffffff"] ;
367 -> 368 ;
369 [label="Publisher <= 249.5\ngini = 0.917\nsamples = 12\nvalue = [0, 0, 0 ... 0, 0, 0]\nclass = Armored Core: Verdict Day", fillcolor="#ffffff"] ;
367 -> 369 ;
370 [label="gini = 0.0\nsamples = 1\nvalue = [0, 0, 0 ... 0, 0, 0]\nclass = Armored Core: Verdict Day", fillcolor="#e5b139"] ;
369 -> 370 ;
371 [label="Publisher <= 250.5\ngini = 0.909\nsamples = 11\nvalue = [0, 0, 0 ... 0, 0, 0]\nclass = Densha de Go! Tokubetsu-hen: Fukkatsu Shouwa no Yamatesen", fillcolor="#ffffff"] ;
369 -> 371 ;
372 [label="gini = 0.0\nsamples = 1\nvalue = [0, 0, 0 ... 0, 0, 0]\nclass = Monaco Grand Prix", fillcolor="#7239e5"] ;
371 -> 372 ;
373 [label="Publisher <= 252.0\ngini = 0.9\nsamples = 10\nvalue = [0, 0, 0 ... 0, 0, 0]\nclass = Densha de Go! Tokubetsu-hen: Fukkatsu Shouwa no Yamatesen", fillcolor="#ffffff"] ;
371 -> 373 ;
374 [label="gini = 0.667\nsamples = 3\nvalue = [0, 0, 0 ... 0, 0, 0]\nclass = Final Fantasy IV: The Complete Collection", fillcolor="#ffffff"] ;
373 -> 374 ;
375 [label="Publisher <= 254.0\ngini = 0.857\nsamples = 7\nvalue = [0, 0, 0 ... 0, 0, 0]\nclass = Densha de Go! Tokubetsu-hen: Fukkatsu Shouwa no Yamatesen", fillcolor="#ffffff"] ;
373 -> 375 ;
376 [label="gini = 0.0\nsamples = 1\nvalue = [0, 0, 0 ... 0, 0, 0]\nclass = Mobile Suit Gundam: Extreme VS Full Boost", fillcolor="#6d39e5"] ;
375 -> 376 ;
377 [label="Publisher <= 256.0\ngini = 0.833\nsamples = 6\nvalue = [0, 0, 0 ... 0, 0, 0]\nclass = Densha de Go! Tokubetsu-hen: Fukkatsu Shouwa no Yamatesen", fillcolor="#ffffff"] ;
375 -> 377 ;
378 [label="gini = 0.0\nsamples = 1\nvalue = [0, 0, 0 ... 0, 0, 0]\nclass = Densha de Go! Tokubetsu-hen: Fukkatsu Shouwa no Yamatesen", fillcolor="#67e539"] ;
377 -> 378 ;
379 [label="Publisher <= 259.5\ngini = 0.8\nsamples = 5\nvalue = [0, 0, 0 ... 0, 0, 0]\nclass = Disney Planes Fire & Rescue", fillcolor="#ffffff"] ;
377 -> 379 ;
380 [label="gini = 0.0\nsamples = 1\nvalue = [0, 0, 0 ... 0, 0, 0]\nclass = Micro Machines 64 Turbo", fillcolor="#6139e5"] ;
379 -> 380 ;
381 [label="Publisher <= 262.5\ngini = 0.75\nsamples = 4\nvalue = [0, 0, 0 ... 0, 0, 0]\nclass = Disney Planes Fire & Rescue", fillcolor="#ffffff"] ;
379 -> 381 ;
382 [label="gini = 0.667\nsamples = 3\nvalue = [0, 0, 0 ... 0, 0, 0]\nclass = Disney Planes Fire & Rescue", fillcolor="#ffffff"] ;
381 -> 382 ;
383 [label="gini = 0.0\nsamples = 1\nvalue = [0, 0, 0 ... 0, 0, 0]\nclass = PopCap Arcade Vol 2", fillcolor="#e539bd"] ;
381 -> 383 ;
384 [label="Publisher <= 264.5\ngini = 0.72\nsamples = 5\nvalue = [0, 0, 0 ... 0, 0, 0]\nclass = Fragile Dreams: Farewell Ruins of the Moon", fillcolor="#cef8e6"] ;
300 -> 384 ;
385 [label="gini = 0.444\nsamples = 3\nvalue = [0, 0, 0 ... 0, 0, 0]\nclass = Fragile Dreams: Farewell Ruins of the Moon", fillcolor="#9cf2cc"] ;
384 -> 385 ;
386 [label="gini = 0.5\nsamples = 2\nvalue = [0, 0, 0 ... 0, 0, 0]\nclass = Bump 'n' Jump", fillcolor="#ffffff"] ;
384 -> 386 ;
387 [label="gini = 0.64\nsamples = 5\nvalue = [0, 0, 0 ... 0, 0, 0]\nclass = Attack on Titan (KOEI)", fillcolor="#ffffff"] ;
299 -> 387 ;
388 [label="gini = 0.0\nsamples = 3\nvalue = [0, 0, 0 ... 0, 0, 0]\nclass = Banjo-Pilot", fillcolor="#e5c539"] ;
298 -> 388 ;
389 [label="Publisher <= 276.0\ngini = 0.985\nsamples = 123\nvalue = [0, 0, 0 ... 0, 0, 0]\nclass = Monster 4x4: Stunt Racer", fillcolor="#ffffff"] ;
297 -> 389 ;
390 [label="gini = 0.984\nsamples = 114\nvalue = [0, 0, 0 ... 0, 0, 0]\nclass = Monster 4x4: Stunt Racer", fillcolor="#ffffff"] ;
389 -> 390 ;
391 [label="Publisher <= 277.5\ngini = 0.889\nsamples = 9\nvalue = [0, 0, 0 ... 0, 0, 0]\nclass = Boktai: The Sun is in Your Hand", fillcolor="#ffffff"] ;
389 -> 391 ;
392 [label="gini = 0.0\nsamples = 1\nvalue = [0, 0, 0 ... 0, 0, 0]\nclass = Horse Life 4: My Horse, My Friend, My Champion", fillcolor="#39d1e5"] ;
391 -> 392 ;
393 [label="Publisher <= 279.5\ngini = 0.875\nsamples = 8\nvalue = [0, 0, 0 ... 0, 0, 0]\nclass = Boktai: The Sun is in Your Hand", fillcolor="#ffffff"] ;
391 -> 393 ;
394 [label="gini = 0.0\nsamples = 1\nvalue = [0, 0, 0 ... 0, 0, 0]\nclass = Boktai: The Sun is in Your Hand", fillcolor="#dfe539"] ;
393 -> 394 ;
395 [label="Publisher <= 282.0\ngini = 0.857\nsamples = 7\nvalue = [0, 0, 0 ... 0, 0, 0]\nclass = Cake Mania: In The Mix!", fillcolor="#ffffff"] ;
393 -> 395 ;
396 [label="gini = 0.833\nsamples = 6\nvalue = [0, 0, 0 ... 0, 0, 0]\nclass = Cake Mania: In The Mix!", fillcolor="#ffffff"] ;
395 -> 396 ;
397 [label="gini = 0.0\nsamples = 1\nvalue = [0, 0, 0 ... 0, 0, 0]\nclass = MLB 2K12 / NBA 2K12 Combo Pack", fillcolor="#394ae5"] ;
395 -> 397 ;
398 [label="gini = 0.765\nsamples = 14\nvalue = [0, 0, 0 ... 0, 0, 0]\nclass = Aa Megami-samaa", fillcolor="#faebdb"] ;
296 -> 398 ;
399 [label="gini = 0.887\nsamples = 36\nvalue = [0, 0, 0 ... 0, 0, 0]\nclass = Himawari: Pebble in the Sky Portable", fillcolor="#ffffff"] ;
295 -> 399 ;
400 [label="Publisher <= 297.5\ngini = 0.998\nsamples = 578\nvalue = [0, 0, 0 ... 0, 0, 0]\nclass = Resistance: Fall of Man", fillcolor="#ffffff"] ;
294 -> 400 ;
401 [label="Publisher <= 293.5\ngini = 0.888\nsamples = 14\nvalue = [0, 0, 0 ... 0, 0, 0]\nclass = Magic Pengel: The Quest for Color", fillcolor="#eeeffd"] ;
400 -> 401 ;
402 [label="gini = 0.5\nsamples = 2\nvalue = [0, 0, 0 ... 0, 0, 0]\nclass = Need for Speed Underground Rivals", fillcolor="#ffffff"] ;
401 -> 402 ;
403 [label="gini = 0.861\nsamples = 12\nvalue = [0, 0, 0 ... 0, 0, 0]\nclass = Magic Pengel: The Quest for Color", fillcolor="#ebecfc"] ;
401 -> 403 ;
404 [label="Publisher <= 445.0\ngini = 0.997\nsamples = 564\nvalue = [0, 0, 0 ... 0, 0, 0]\nclass = Resistance: Fall of Man", fillcolor="#ffffff"] ;
400 -> 404 ;
405 [label="Publisher <= 366.0\ngini = 0.997\nsamples = 398\nvalue = [0, 0, 0 ... 0, 0, 0]\nclass = Astro Boy", fillcolor="#ffffff"] ;
404 -> 405 ;
406 [label="Publisher <= 335.5\ngini = 0.996\nsamples = 335\nvalue = [0, 0, 0 ... 0, 0, 0]\nclass = Astro Boy", fillcolor="#ffffff"] ;
405 -> 406 ;
407 [label="Publisher <= 324.5\ngini = 0.977\nsamples = 64\nvalue = [0, 0, 0 ... 0, 0, 0]\nclass = Final Fantasy XII International Zodiac Job System", fillcolor="#ffffff"] ;
406 -> 407 ;
408 [label="Publisher <= 303.0\ngini = 0.972\nsamples = 37\nvalue = [0, 0, 0 ... 0, 0, 0]\nclass = Hakuouki: Reimeiroku", fillcolor="#fafefe"] ;
407 -> 408 ;
409 [label="Publisher <= 300.0\ngini = 0.88\nsamples = 10\nvalue = [0, 0, 0 ... 0, 0, 0]\nclass = Hakuouki: Reimeiroku", fillcolor="#e9fcfb"] ;
408 -> 409 ;
410 [label="gini = 0.5\nsamples = 2\nvalue = [0, 0, 0 ... 0, 0, 0]\nclass = Dragon Warrior III", fillcolor="#ffffff"] ;
409 -> 410 ;
411 [label="gini = 0.844\nsamples = 8\nvalue = [0, 0, 0 ... 0, 0, 0]\nclass = Hakuouki: Reimeiroku", fillcolor="#e3fbfa"] ;
409 -> 411 ;
412 [label="Publisher <= 306.0\ngini = 0.963\nsamples = 27\nvalue = [0, 0, 0 ... 0, 0, 0]\nclass = Accel World: Kasoku no Chouten", fillcolor="#ffffff"] ;
408 -> 412 ;
413 [label="gini = 0.75\nsamples = 4\nvalue = [0, 0, 0 ... 0, 0, 0]\nclass = Accel World: Kasoku no Chouten", fillcolor="#ffffff"] ;
412 -> 413 ;
414 [label="Publisher <= 310.5\ngini = 0.957\nsamples = 23\nvalue = [0, 0, 0 ... 0, 0, 0]\nclass = Advance Wars: Dual Strike", fillcolor="#ffffff"] ;
412 -> 414 ;
415 [label="gini = 0.0\nsamples = 1\nvalue = [0, 0, 0 ... 0, 0, 0]\nclass = Cooking Mama 3: Shop & Chop", fillcolor="#95e539"] ;
414 -> 415 ;
416 [label="Publisher <= 317.5\ngini = 0.955\nsamples = 22\nvalue = [0, 0, 0 ... 0, 0, 0]\nclass = Advance Wars: Dual Strike", fillcolor="#ffffff"] ;
414 -> 416 ;
417 [label="gini = 0.0\nsamples = 1\nvalue = [0, 0, 0 ... 0, 0, 0]\nclass = Advance Wars: Dual Strike", fillcolor="#e59239"] ;
416 -> 417 ;
418 [label="Publisher <= 322.0\ngini = 0.952\nsamples = 21\nvalue = [0, 0, 0 ... 0, 0, 0]\nclass = Agatha Christie's The ABC Murders", fillcolor="#ffffff"] ;
416 -> 418 ;
419 [label="gini = 0.5\nsamples = 2\nvalue = [0, 0, 0 ... 0, 0, 0]\nclass = Hayate no Gotoku! Nightmare Paradise", fillcolor="#ffffff"] ;
418 -> 419 ;
420 [label="Publisher <= 323.5\ngini = 0.947\nsamples = 19\nvalue = [0, 0, 0 ... 0, 0, 0]\nclass = Agatha Christie's The ABC Murders", fillcolor="#ffffff"] ;
418 -> 420 ;
421 [label="gini = 0.941\nsamples = 17\nvalue = [0, 0, 0 ... 0, 0, 0]\nclass = Agatha Christie's The ABC Murders", fillcolor="#ffffff"] ;
420 -> 421 ;
422 [label="gini = 0.5\nsamples = 2\nvalue = [0, 0, 0 ... 0, 0, 0]\nclass = Call of Duty: Ghosts", fillcolor="#ffffff"] ;
420 -> 422 ;
423 [label="Publisher <= 327.0\ngini = 0.927\nsamples = 27\nvalue = [0, 0, 0 ... 0, 0, 0]\nclass = Final Fantasy XII International Zodiac Job System", fillcolor="#ffffff"] ;
407 -> 423 ;
424 [label="gini = 0.907\nsamples = 23\nvalue = [0, 0, 0 ... 0, 0, 0]\nclass = Final Fantasy XII International Zodiac Job System", fillcolor="#ffffff"] ;
423 -> 424 ;
425 [label="Publisher <= 329.5\ngini = 0.75\nsamples = 4\nvalue = [0, 0, 0 ... 0, 0, 0]\nclass = Mickey's Speedway USA (weekly JP sales)", fillcolor="#ffffff"] ;
423 -> 425 ;
426 [label="gini = 0.0\nsamples = 1\nvalue = [0, 0, 0 ... 0, 0, 0]\nclass = Olympic Soccer: Atlanta 1996", fillcolor="#d439e5"] ;
425 -> 426 ;
427 [label="gini = 0.667\nsamples = 3\nvalue = [0, 0, 0 ... 0, 0, 0]\nclass = Mickey's Speedway USA (weekly JP sales)", fillcolor="#ffffff"] ;
425 -> 427 ;
428 [label="Publisher <= 361.5\ngini = 0.995\nsamples = 271\nvalue = [0, 0, 0 ... 0, 0, 0]\nclass = Astro Boy", fillcolor="#ffffff"] ;
406 -> 428 ;
429 [label="Publisher <= 349.5\ngini = 0.995\nsamples = 257\nvalue = [0, 0, 0 ... 0, 0, 0]\nclass = Astro Boy", fillcolor="#ffffff"] ;
428 -> 429 ;
430 [label="Publisher <= 345.0\ngini = 0.993\nsamples = 192\nvalue = [0, 0, 0 ... 0, 0, 0]\nclass = Astro Boy", fillcolor="#ffffff"] ;
429 -> 430 ;
431 [label="Publisher <= 342.0\ngini = 0.5\nsamples = 2\nvalue = [0, 0, 0 ... 0, 0, 0]\nclass = Chou Ezaru wa Akai Hana: Koi wa Tsuki ni Shirube Kareru", fillcolor="#ffffff"] ;
430 -> 431 ;
432 [label="gini = 0.0\nsamples = 1\nvalue = [0, 0, 0 ... 0, 0, 0]\nclass = Chou Ezaru wa Akai Hana: Koi wa Tsuki ni Shirube Kareru", fillcolor="#ace539"] ;
431 -> 432 ;
433 [label="gini = 0.0\nsamples = 1\nvalue = [0, 0, 0 ... 0, 0, 0]\nclass = Far East of Eden II: Manji Maru", fillcolor="#39e57e"] ;
431 -> 433 ;
434 [label="gini = 0.993\nsamples = 190\nvalue = [0, 0, 0 ... 0, 0, 0]\nclass = Astro Boy", fillcolor="#ffffff"] ;
430 -> 434 ;
435 [label="Publisher <= 353.5\ngini = 0.985\nsamples = 65\nvalue = [0, 0, 0 ... 0, 0, 0]\nclass = Bad Boys: Miami Takedown", fillcolor="#ffffff"] ;
429 -> 435 ;
436 [label="gini = 0.0\nsamples = 1\nvalue = [0, 0, 0 ... 0, 0, 0]\nclass = Shadow Tower", fillcolor="#e53947"] ;
435 -> 436 ;
437 [label="Publisher <= 356.5\ngini = 0.984\nsamples = 64\nvalue = [0, 0, 0 ... 0, 0, 0]\nclass = Bad Boys: Miami Takedown", fillcolor="#ffffff"] ;
435 -> 437 ;
438 [label="gini = 0.5\nsamples = 2\nvalue = [0, 0, 0 ... 0, 0, 0]\nclass = Dead Man's Hand", fillcolor="#ffffff"] ;
437 -> 438 ;
439 [label="Publisher <= 358.5\ngini = 0.984\nsamples = 62\nvalue = [0, 0, 0 ... 0, 0, 0]\nclass = Bad Boys: Miami Takedown", fillcolor="#ffffff"] ;
437 -> 439 ;
440 [label="gini = 0.5\nsamples = 2\nvalue = [0, 0, 0 ... 0, 0, 0]\nclass = MLB SlugFest Loaded", fillcolor="#ffffff"] ;
439 -> 440 ;
441 [label="Publisher <= 360.0\ngini = 0.983\nsamples = 60\nvalue = [0, 0, 0 ... 0, 0, 0]\nclass = Bad Boys: Miami Takedown", fillcolor="#ffffff"] ;
439 -> 441 ;
442 [label="gini = 0.982\nsamples = 56\nvalue = [0, 0, 0 ... 0, 0, 0]\nclass = Bad Boys: Miami Takedown", fillcolor="#ffffff"] ;
441 -> 442 ;
443 [label="gini = 0.75\nsamples = 4\nvalue = [0, 0, 0 ... 0, 0, 0]\nclass = Front Mission: Gun Hazard", fillcolor="#ffffff"] ;
441 -> 443 ;
444 [label="Publisher <= 363.5\ngini = 0.918\nsamples = 14\nvalue = [0, 0, 0 ... 0, 0, 0]\nclass = After Hours Athletes", fillcolor="#fdf7f0"] ;
428 -> 444 ;
445 [label="gini = 0.903\nsamples = 12\nvalue = [0, 0, 0 ... 0, 0, 0]\nclass = After Hours Athletes", fillcolor="#fdf5ed"] ;
444 -> 445 ;
446 [label="gini = 0.5\nsamples = 2\nvalue = [0, 0, 0 ... 0, 0, 0]\nclass = Senran Kagura: Bon Apptit!", fillcolor="#ffffff"] ;
444 -> 446 ;
447 [label="Publisher <= 369.5\ngini = 0.976\nsamples = 63\nvalue = [0, 0, 0 ... 0, 0, 0]\nclass = Ace Attorney Investigations 2", fillcolor="#ffffff"] ;
405 -> 447 ;
448 [label="gini = 0.653\nsamples = 7\nvalue = [0, 0, 0 ... 0, 0, 0]\nclass = College Hoops 2K6", fillcolor="#ebfad7"] ;
447 -> 448 ;
449 [label="Publisher <= 383.0\ngini = 0.974\nsamples = 56\nvalue = [0, 0, 0 ... 0, 0, 0]\nclass = Ace Attorney Investigations 2", fillcolor="#ffffff"] ;
447 -> 449 ;
450 [label="Publisher <= 379.5\ngini = 0.857\nsamples = 14\nvalue = [0, 0, 0 ... 0, 0, 0]\nclass = Ace Attorney Investigations 2", fillcolor="#ffffff"] ;
449 -> 450 ;
451 [label="Publisher <= 375.0\ngini = 0.72\nsamples = 5\nvalue = [0, 0, 0 ... 0, 0, 0]\nclass = Gaist Crusher God", fillcolor="#cef8e9"] ;
450 -> 451 ;
452 [label="gini = 0.5\nsamples = 2\nvalue = [0, 0, 0 ... 0, 0, 0]\nclass = Kart Racer", fillcolor="#ffffff"] ;
451 -> 452 ;
453 [label="gini = 0.444\nsamples = 3\nvalue = [0, 0, 0 ... 0, 0, 0]\nclass = Gaist Crusher God", fillcolor="#9cf2d2"] ;
451 -> 453 ;
454 [label="gini = 0.741\nsamples = 9\nvalue = [0, 0, 0 ... 0, 0, 0]\nclass = Ace Attorney Investigations 2", fillcolor="#ffffff"] ;
450 -> 454 ;
455 [label="Publisher <= 407.0\ngini = 0.971\nsamples = 42\nvalue = [0, 0, 0 ... 0, 0, 0]\nclass = Age of Mythology", fillcolor="#ffffff"] ;
449 -> 455 ;
456 [label="Publisher <= 401.5\ngini = 0.84\nsamples = 10\nvalue = [0, 0, 0 ... 0, 0, 0]\nclass = Age of Mythology", fillcolor="#ffffff"] ;
455 -> 456 ;
457 [label="Publisher <= 388.0\ngini = 0.75\nsamples = 4\nvalue = [0, 0, 0 ... 0, 0, 0]\nclass = Ape Escape 3", fillcolor="#ffffff"] ;
456 -> 457 ;
458 [label="gini = 0.0\nsamples = 1\nvalue = [0, 0, 0 ... 0, 0, 0]\nclass = Rascal", fillcolor="#e53998"] ;
457 -> 458 ;
459 [label="Publisher <= 396.0\ngini = 0.667\nsamples = 3\nvalue = [0, 0, 0 ... 0, 0, 0]\nclass = Ape Escape 3", fillcolor="#ffffff"] ;
457 -> 459 ;
460 [label="gini = 0.5\nsamples = 2\nvalue = [0, 0, 0 ... 0, 0, 0]\nclass = ESPN NHL 2K5", fillcolor="#ffffff"] ;
459 -> 460 ;
461 [label="gini = 0.0\nsamples = 1\nvalue = [0, 0, 0 ... 0, 0, 0]\nclass = Ape Escape 3", fillcolor="#e5a939"] ;
459 -> 461 ;
462 [label="gini = 0.667\nsamples = 6\nvalue = [0, 0, 0 ... 0, 0, 0]\nclass = Age of Mythology", fillcolor="#ffffff"] ;
456 -> 462 ;
463 [label="Publisher <= 435.5\ngini = 0.965\nsamples = 32\nvalue = [0, 0, 0 ... 0, 0, 0]\nclass = Conflict: Vietnam", fillcolor="#ffffff"] ;
455 -> 463 ;
464 [label="Publisher <= 427.5\ngini = 0.953\nsamples = 23\nvalue = [0, 0, 0 ... 0, 0, 0]\nclass = Conflict: Vietnam", fillcolor="#fafef6"] ;
463 -> 464 ;
465 [label="Publisher <= 412.5\ngini = 0.889\nsamples = 9\nvalue = [0, 0, 0 ... 0, 0, 0]\nclass = A. IV Evolution: A Ressha de Ikou 4", fillcolor="#ffffff"] ;
464 -> 465 ;
466 [label="gini = 0.0\nsamples = 1\nvalue = [0, 0, 0 ... 0, 0, 0]\nclass = Housekeeping", fillcolor="#39cbe5"] ;
465 -> 466 ;
467 [label="Publisher <= 414.5\ngini = 0.875\nsamples = 8\nvalue = [0, 0, 0 ... 0, 0, 0]\nclass = A. IV Evolution: A Ressha de Ikou 4", fillcolor="#ffffff"] ;
465 -> 467 ;
468 [label="gini = 0.8\nsamples = 5\nvalue = [0, 0, 0 ... 0, 0, 0]\nclass = Battle Spirits: Kiseki no Hasha", fillcolor="#ffffff"] ;
467 -> 468 ;
469 [label="Publisher <= 420.5\ngini = 0.667\nsamples = 3\nvalue = [0, 0, 0 ... 0, 0, 0]\nclass = A. IV Evolution: A Ressha de Ikou 4", fillcolor="#ffffff"] ;
467 -> 469 ;
470 [label="gini = 0.5\nsamples = 2\nvalue = [0, 0, 0 ... 0, 0, 0]\nclass = A. IV Evolution: A Ressha de Ikou 4", fillcolor="#ffffff"] ;
469 -> 470 ;
471 [label="gini = 0.0\nsamples = 1\nvalue = [0, 0, 0 ... 0, 0, 0]\nclass = NHL 16", fillcolor="#a639e5"] ;
469 -> 471 ;
472 [label="Publisher <= 431.0\ngini = 0.918\nsamples = 14\nvalue = [0, 0, 0 ... 0, 0, 0]\nclass = Conflict: Vietnam", fillcolor="#f7fdf0"] ;
464 -> 472 ;
473 [label="gini = 0.816\nsamples = 7\nvalue = [0, 0, 0 ... 0, 0, 0]\nclass = Conflict: Vietnam", fillcolor="#eefbde"] ;
472 -> 473 ;
474 [label="Publisher <= 432.5\ngini = 0.857\nsamples = 7\nvalue = [0, 0, 0 ... 0, 0, 0]\nclass = CSI: Dark Motives", fillcolor="#ffffff"] ;
472 -> 474 ;
475 [label="gini = 0.667\nsamples = 3\nvalue = [0, 0, 0 ... 0, 0, 0]\nclass = CSI: Dark Motives", fillcolor="#ffffff"] ;
474 -> 475 ;
476 [label="Publisher <= 433.5\ngini = 0.75\nsamples = 4\nvalue = [0, 0, 0 ... 0, 0, 0]\nclass = DoDonPachi Resurrection", fillcolor="#ffffff"] ;
474 -> 476 ;
477 [label="gini = 0.0\nsamples = 1\nvalue = [0, 0, 0 ... 0, 0, 0]\nclass = MySims Party", fillcolor="#8f39e5"] ;
476 -> 477 ;
478 [label="Publisher <= 434.5\ngini = 0.667\nsamples = 3\nvalue = [0, 0, 0 ... 0, 0, 0]\nclass = DoDonPachi Resurrection", fillcolor="#ffffff"] ;
476 -> 478 ;
479 [label="gini = 0.5\nsamples = 2\nvalue = [0, 0, 0 ... 0, 0, 0]\nclass = PopCap Hits!", fillcolor="#ffffff"] ;
478 -> 479 ;
480 [label="gini = 0.0\nsamples = 1\nvalue = [0, 0, 0 ... 0, 0, 0]\nclass = DoDonPachi Resurrection", fillcolor="#4ae539"] ;
478 -> 480 ;
481 [label="Publisher <= 439.0\ngini = 0.864\nsamples = 9\nvalue = [0, 0, 0 ... 0, 0, 0]\nclass = Retro Atari Classics", fillcolor="#fce6f0"] ;
463 -> 481 ;
482 [label="gini = 0.625\nsamples = 4\nvalue = [0, 0, 0 ... 0, 0, 0]\nclass = Retro Atari Classics", fillcolor="#f6bdd7"] ;
481 -> 482 ;
483 [label="Publisher <= 442.5\ngini = 0.8\nsamples = 5\nvalue = [0, 0, 0 ... 0, 0, 0]\nclass = Armored Core 4", fillcolor="#ffffff"] ;
481 -> 483 ;
484 [label="gini = 0.0\nsamples = 1\nvalue = [0, 0, 0 ... 0, 0, 0]\nclass = Ghost in the Shell: Stand Alone Complex", fillcolor="#39e5b7"] ;
483 -> 484 ;
485 [label="Publisher <= 443.5\ngini = 0.75\nsamples = 4\nvalue = [0, 0, 0 ... 0, 0, 0]\nclass = Armored Core 4", fillcolor="#ffffff"] ;
483 -> 485 ;
486 [label="gini = 0.0\nsamples = 1\nvalue = [0, 0, 0 ... 0, 0, 0]\nclass = Cruis'n World", fillcolor="#89e539"] ;
485 -> 486 ;
487 [label="gini = 0.667\nsamples = 3\nvalue = [0, 0, 0 ... 0, 0, 0]\nclass = Armored Core 4", fillcolor="#ffffff"] ;
485 -> 487 ;
488 [label="Publisher <= 447.0\ngini = 0.991\nsamples = 166\nvalue = [0, 0, 0 ... 0, 0, 0]\nclass = Resistance: Fall of Man", fillcolor="#fffefe"] ;
404 -> 488 ;
489 [label="gini = 0.974\nsamples = 79\nvalue = [0, 0, 0 ... 0, 0, 0]\nclass = Resistance: Fall of Man", fillcolor="#fffcfd"] ;
488 -> 489 ;
490 [label="Publisher <= 458.5\ngini = 0.987\nsamples = 87\nvalue = [0, 0, 0 ... 0, 0, 0]\nclass = Bionicle: Matoran Adventures", fillcolor="#ffffff"] ;
488 -> 490 ;
491 [label="Publisher <= 455.0\ngini = 0.985\nsamples = 72\nvalue = [0, 0, 0 ... 0, 0, 0]\nclass = FIFA Soccer 13", fillcolor="#ffffff"] ;
490 -> 491 ;
492 [label="Publisher <= 451.0\ngini = 0.5\nsamples = 2\nvalue = [0, 0, 0 ... 0, 0, 0]\nclass = Gundam Try Age SP", fillcolor="#ffffff"] ;
491 -> 492 ;
493 [label="gini = 0.0\nsamples = 1\nvalue = [0, 0, 0 ... 0, 0, 0]\nclass = Gundam Try Age SP", fillcolor="#39e5d4"] ;
492 -> 493 ;
494 [label="gini = 0.0\nsamples = 1\nvalue = [0, 0, 0 ... 0, 0, 0]\nclass = SpongeBob SquarePants: Game Boy Advance Video Volume 2", fillcolor="#e56439"] ;
492 -> 494 ;
495 [label="gini = 0.984\nsamples = 70\nvalue = [0, 0, 0 ... 0, 0, 0]\nclass = FIFA Soccer 13", fillcolor="#ffffff"] ;
491 -> 495 ;
496 [label="Publisher <= 461.5\ngini = 0.924\nsamples = 15\nvalue = [0, 0, 0 ... 0, 0, 0]\nclass = Bionicle: Matoran Adventures", fillcolor="#fdfdf1"] ;
490 -> 496 ;
497 [label="gini = 0.816\nsamples = 7\nvalue = [0, 0, 0 ... 0, 0, 0]\nclass = Bionicle: Matoran Adventures", fillcolor="#fbf9de"] ;
496 -> 497 ;
498 [label="gini = 0.875\nsamples = 8\nvalue = [0, 0, 0 ... 0, 0, 0]\nclass = Empire Earth II", fillcolor="#ffffff"] ;
496 -> 498 ;
499 [label="Publisher <= 466.0\ngini = 0.956\nsamples = 55\nvalue = [0, 0, 0 ... 0, 0, 0]\nclass = Klax", fillcolor="#fbfcfe"] ;
293 -> 499 ;
500 [label="gini = 0.935\nsamples = 43\nvalue = [0, 0, 0 ... 0, 0, 0]\nclass = Klax", fillcolor="#fafbfe"] ;
499 -> 500 ;
501 [label="Publisher <= 468.0\ngini = 0.917\nsamples = 12\nvalue = [0, 0, 0 ... 0, 0, 0]\nclass = Amazing Adventures: The Forgotten Ruins", fillcolor="#ffffff"] ;
499 -> 501 ;
502 [label="gini = 0.0\nsamples = 1\nvalue = [0, 0, 0 ... 0, 0, 0]\nclass = Breath of Fire IV", fillcolor="#d7e539"] ;
501 -> 502 ;
503 [label="Publisher <= 470.0\ngini = 0.909\nsamples = 11\nvalue = [0, 0, 0 ... 0, 0, 0]\nclass = Amazing Adventures: The Forgotten Ruins", fillcolor="#ffffff"] ;
501 -> 503 ;
504 [label="gini = 0.0\nsamples = 1\nvalue = [0, 0, 0 ... 0, 0, 0]\nclass = Duke Nukem Trilogy: Critical Mass", fillcolor="#39e54a"] ;
503 -> 504 ;
505 [label="Publisher <= 473.5\ngini = 0.9\nsamples = 10\nvalue = [0, 0, 0 ... 0, 0, 0]\nclass = Amazing Adventures: The Forgotten Ruins", fillcolor="#ffffff"] ;
503 -> 505 ;
506 [label="gini = 0.0\nsamples = 1\nvalue = [0, 0, 0 ... 0, 0, 0]\nclass = Kenka Banchou Portable", fillcolor="#3983e5"] ;
505 -> 506 ;
507 [label="Publisher <= 477.5\ngini = 0.889\nsamples = 9\nvalue = [0, 0, 0 ... 0, 0, 0]\nclass = Amazing Adventures: The Forgotten Ruins", fillcolor="#ffffff"] ;
505 -> 507 ;
508 [label="gini = 0.0\nsamples = 1\nvalue = [0, 0, 0 ... 0, 0, 0]\nclass = Elminage II DS Remix: Sousei no Megami to Unmai no Daichi", fillcolor="#39e55b"] ;
507 -> 508 ;
509 [label="Publisher <= 482.0\ngini = 0.875\nsamples = 8\nvalue = [0, 0, 0 ... 0, 0, 0]\nclass = Amazing Adventures: The Forgotten Ruins", fillcolor="#ffffff"] ;
507 -> 509 ;
510 [label="gini = 0.0\nsamples = 1\nvalue = [0, 0, 0 ... 0, 0, 0]\nclass = Sailor Moon", fillcolor="#e53961"] ;
509 -> 510 ;
511 [label="Publisher <= 485.5\ngini = 0.857\nsamples = 7\nvalue = [0, 0, 0 ... 0, 0, 0]\nclass = Amazing Adventures: The Forgotten Ruins", fillcolor="#ffffff"] ;
509 -> 511 ;
512 [label="gini = 0.5\nsamples = 2\nvalue = [0, 0, 0 ... 0, 0, 0]\nclass = Bruce Lee: Quest of the Dragon", fillcolor="#ffffff"] ;
511 -> 512 ;
513 [label="gini = 0.8\nsamples = 5\nvalue = [0, 0, 0 ... 0, 0, 0]\nclass = Amazing Adventures: The Forgotten Ruins", fillcolor="#ffffff"] ;
511 -> 513 ;
514 [label="Publisher <= 489.5\ngini = 0.994\nsamples = 349\nvalue = [0, 0, 0 ... 0, 0, 0]\nclass = My Baby Girl", fillcolor="#fefdff"] ;
292 -> 514 ;
515 [label="gini = 0.982\nsamples = 152\nvalue = [0, 0, 0 ... 0, 0, 0]\nclass = My Baby Girl", fillcolor="#fdfbfe"] ;
514 -> 515 ;
516 [label="Publisher <= 513.0\ngini = 0.99\nsamples = 197\nvalue = [0, 0, 0 ... 0, 0, 0]\nclass = Dragon Blade: Wrath of Fire", fillcolor="#ffffff"] ;
514 -> 516 ;
517 [label="Publisher <= 497.0\ngini = 0.99\nsamples = 195\nvalue = [0, 0, 0 ... 0, 0, 0]\nclass = Dragon Blade: Wrath of Fire", fillcolor="#ffffff"] ;
516 -> 517 ;
518 [label="Publisher <= 493.5\ngini = 0.976\nsamples = 83\nvalue = [0, 0, 0 ... 0, 0, 0]\nclass = Dragon Blade: Wrath of Fire", fillcolor="#ffffff"] ;
517 -> 518 ;
519 [label="Publisher <= 491.5\ngini = 0.917\nsamples = 12\nvalue = [0, 0, 0 ... 0, 0, 0]\nclass = Earth Defense Force 4.1: The Shadow of New Despair", fillcolor="#ffffff"] ;
518 -> 519 ;
520 [label="gini = 0.0\nsamples = 1\nvalue = [0, 0, 0 ... 0, 0, 0]\nclass = Earth Defense Force 4.1: The Shadow of New Despair", fillcolor="#39e558"] ;
519 -> 520 ;
521 [label="Publisher <= 492.5\ngini = 0.909\nsamples = 11\nvalue = [0, 0, 0 ... 0, 0, 0]\nclass = Hakuouki: Bakumatsu Musou Roku", fillcolor="#ffffff"] ;
519 -> 521 ;
522 [label="gini = 0.667\nsamples = 3\nvalue = [0, 0, 0 ... 0, 0, 0]\nclass = Hannspree Ten Kate Honda: SBK Superbike World Championship", fillcolor="#ffffff"] ;
521 -> 522 ;
523 [label="gini = 0.875\nsamples = 8\nvalue = [0, 0, 0 ... 0, 0, 0]\nclass = Hakuouki: Bakumatsu Musou Roku", fillcolor="#ffffff"] ;
521 -> 523 ;
524 [label="gini = 0.969\nsamples = 71\nvalue = [0, 0, 0 ... 0, 0, 0]\nclass = Dragon Blade: Wrath of Fire", fillcolor="#ffffff"] ;
518 -> 524 ;
525 [label="Publisher <= 501.0\ngini = 0.984\nsamples = 112\nvalue = [0, 0, 0 ... 0, 0, 0]\nclass = Digimon Rumble Arena 2", fillcolor="#ffffff"] ;
517 -> 525 ;
526 [label="gini = 0.983\nsamples = 105\nvalue = [0, 0, 0 ... 0, 0, 0]\nclass = Digimon Rumble Arena 2", fillcolor="#ffffff"] ;
525 -> 526 ;
527 [label="Publisher <= 502.5\ngini = 0.816\nsamples = 7\nvalue = [0, 0, 0 ... 0, 0, 0]\nclass = 3D Dot Game Heroes", fillcolor="#fbebde"] ;
525 -> 527 ;
528 [label="gini = 0.0\nsamples = 2\nvalue = [0, 0, 0 ... 0, 0, 0]\nclass = 3D Dot Game Heroes", fillcolor="#e58639"] ;
527 -> 528 ;
529 [label="Publisher <= 505.0\ngini = 0.8\nsamples = 5\nvalue = [0, 0, 0 ... 0, 0, 0]\nclass = Arcade Party Pak", fillcolor="#ffffff"] ;
527 -> 529 ;
530 [label="gini = 0.0\nsamples = 1\nvalue = [0, 0, 0 ... 0, 0, 0]\nclass = Arcade Party Pak", fillcolor="#e5ac39"] ;
529 -> 530 ;
531 [label="Publisher <= 508.0\ngini = 0.75\nsamples = 4\nvalue = [0, 0, 0 ... 0, 0, 0]\nclass = Gauntlet", fillcolor="#ffffff"] ;
529 -> 531 ;
532 [label="gini = 0.0\nsamples = 1\nvalue = [0, 0, 0 ... 0, 0, 0]\nclass = Minna de Dokusho: Keatai Shousetsu Desu", fillcolor="#6739e5"] ;
531 -> 532 ;
533 [label="Publisher <= 510.5\ngini = 0.667\nsamples = 3\nvalue = [0, 0, 0 ... 0, 0, 0]\nclass = Gauntlet", fillcolor="#ffffff"] ;
531 -> 533 ;
534 [label="gini = 0.5\nsamples = 2\nvalue = [0, 0, 0 ... 0, 0, 0]\nclass = Gauntlet", fillcolor="#ffffff"] ;
533 -> 534 ;
535 [label="gini = 0.0\nsamples = 1\nvalue = [0, 0, 0 ... 0, 0, 0]\nclass = MDK", fillcolor="#394ae5"] ;
533 -> 535 ;
536 [label="gini = 0.0\nsamples = 2\nvalue = [0, 0, 0 ... 0, 0, 0]\nclass = Shakugan no Shana", fillcolor="#e53947"] ;
516 -> 536 ;
537 [label="Publisher <= 520.5\ngini = 0.989\nsamples = 208\nvalue = [0, 0, 0 ... 0, 0, 0]\nclass = Armored Core: Last Raven", fillcolor="#ffffff"] ;
291 -> 537 ;
538 [label="gini = 0.0\nsamples = 3\nvalue = [0, 0, 0 ... 0, 0, 0]\nclass = NHL 98", fillcolor="#a939e5"] ;
537 -> 538 ;
539 [label="Publisher <= 525.5\ngini = 0.989\nsamples = 205\nvalue = [0, 0, 0 ... 0, 0, 0]\nclass = Armored Core: Last Raven", fillcolor="#ffffff"] ;
537 -> 539 ;
540 [label="Publisher <= 524.0\ngini = 0.982\nsamples = 154\nvalue = [0, 0, 0 ... 0, 0, 0]\nclass = Armored Core: Last Raven", fillcolor="#ffffff"] ;
539 -> 540 ;
541 [label="gini = 0.0\nsamples = 1\nvalue = [0, 0, 0 ... 0, 0, 0]\nclass = Cabela's Deer Hunt 2005 Season", fillcolor="#c5e539"] ;
540 -> 541 ;
542 [label="gini = 0.982\nsamples = 153\nvalue = [0, 0, 0 ... 0, 0, 0]\nclass = Armored Core: Last Raven", fillcolor="#ffffff"] ;
540 -> 542 ;
543 [label="Publisher <= 527.0\ngini = 0.977\nsamples = 51\nvalue = [0, 0, 0 ... 0, 0, 0]\nclass = Dungeon Maker: Hunting Ground", fillcolor="#ffffff"] ;
539 -> 543 ;
544 [label="gini = 0.812\nsamples = 8\nvalue = [0, 0, 0 ... 0, 0, 0]\nclass = Dungeon Maker: Hunting Ground", fillcolor="#ffffff"] ;
543 -> 544 ;
545 [label="Publisher <= 529.5\ngini = 0.973\nsamples = 43\nvalue = [0, 0, 0 ... 0, 0, 0]\nclass = G1 Jockey 3", fillcolor="#ffffff"] ;
543 -> 545 ;
546 [label="Publisher <= 528.5\ngini = 0.812\nsamples = 8\nvalue = [0, 0, 0 ... 0, 0, 0]\nclass = G1 Jockey 3", fillcolor="#ffffff"] ;
545 -> 546 ;
547 [label="gini = 0.0\nsamples = 1\nvalue = [0, 0, 0 ... 0, 0, 0]\nclass = SpongeBob vs The Big One: Beach Party Cook Off", fillcolor="#e56739"] ;
546 -> 547 ;
548 [label="gini = 0.776\nsamples = 7\nvalue = [0, 0, 0 ... 0, 0, 0]\nclass = G1 Jockey 3", fillcolor="#ffffff"] ;
546 -> 548 ;
549 [label="Publisher <= 541.5\ngini = 0.97\nsamples = 35\nvalue = [0, 0, 0 ... 0, 0, 0]\nclass = NBA 07", fillcolor="#fcf9fe"] ;
545 -> 549 ;
550 [label="Publisher <= 534.5\ngini = 0.963\nsamples = 27\nvalue = [0, 0, 0 ... 0, 0, 0]\nclass = 999: Nine Hours, Nine Persons, Nine Doors", fillcolor="#ffffff"] ;
549 -> 550 ;
551 [label="gini = 0.958\nsamples = 24\nvalue = [0, 0, 0 ... 0, 0, 0]\nclass = 999: Nine Hours, Nine Persons, Nine Doors", fillcolor="#ffffff"] ;
550 -> 551 ;
552 [label="Publisher <= 539.5\ngini = 0.667\nsamples = 3\nvalue = [0, 0, 0 ... 0, 0, 0]\nclass = Ace Combat 3: Electrosphere", fillcolor="#ffffff"] ;
550 -> 552 ;
553 [label="gini = 0.0\nsamples = 1\nvalue = [0, 0, 0 ... 0, 0, 0]\nclass = Ace Combat 3: Electrosphere", fillcolor="#e58f39"] ;
552 -> 553 ;
554 [label="Publisher <= 540.5\ngini = 0.5\nsamples = 2\nvalue = [0, 0, 0 ... 0, 0, 0]\nclass = Cruis'n Exotica", fillcolor="#ffffff"] ;
552 -> 554 ;
555 [label="gini = 0.0\nsamples = 1\nvalue = [0, 0, 0 ... 0, 0, 0]\nclass = Cruis'n Exotica", fillcolor="#89e539"] ;
554 -> 555 ;
556 [label="gini = 0.0\nsamples = 1\nvalue = [0, 0, 0 ... 0, 0, 0]\nclass = Jikkyou Powerful Pro Yakyuu 5", fillcolor="#39a0e5"] ;
554 -> 556 ;
557 [label="gini = 0.844\nsamples = 8\nvalue = [0, 0, 0 ... 0, 0, 0]\nclass = NBA 07", fillcolor="#f0e3fb"] ;
549 -> 557 ;
558 [label="Genre <= 9.5\ngini = 1.0\nsamples = 8689\nvalue = [1, 1, 1 ... 2, 1, 0]\nclass = MX 2002 Featuring Ricky Carmichael", fillcolor="#ffffff"] ;
196 -> 558 ;
559 [label="Publisher <= 487.5\ngini = 1.0\nsamples = 6705\nvalue = [0, 1, 1 ... 2, 1, 0]\nclass = MX 2002 Featuring Ricky Carmichael", fillcolor="#ffffff"] ;
558 -> 559 ;
560 [label="Publisher <= 139.5\ngini = 1.0\nsamples = 5413\nvalue = [0, 1, 1 ... 0, 1, 0]\nclass = MX 2002 Featuring Ricky Carmichael", fillcolor="#ffffff"] ;
559 -> 560 ;
561 [label="Publisher <= 137.5\ngini = 0.999\nsamples = 1723\nvalue = [0, 0, 0 ... 0, 1, 0]\nclass = MX 2002 Featuring Ricky Carmichael", fillcolor="#ffffff"] ;
560 -> 561 ;
562 [label="Publisher <= 125.0\ngini = 0.999\nsamples = 1262\nvalue = [0, 0, 0 ... 0, 0, 0]\nclass = Banjo-Kazooie: Nuts & Bolts", fillcolor="#ffffff"] ;
561 -> 562 ;
563 [label="Genre <= 7.5\ngini = 0.999\nsamples = 1077\nvalue = [0, 0, 0 ... 0, 0, 0]\nclass = Banjo-Kazooie: Nuts & Bolts", fillcolor="#ffffff"] ;
562 -> 563 ;
564 [label="Genre <= 5.5\ngini = 0.998\nsamples = 883\nvalue = [0, 0, 0 ... 0, 0, 0]\nclass = Banjo-Kazooie: Nuts & Bolts", fillcolor="#ffffff"] ;
563 -> 564 ;
565 [label="Genre <= 3.5\ngini = 0.998\nsamples = 559\nvalue = [0, 0, 0 ... 0, 0, 0]\nclass = Banjo-Kazooie: Nuts & Bolts", fillcolor="#ffffff"] ;
564 -> 565 ;
566 [label="Publisher <= 119.5\ngini = 0.997\nsamples = 412\nvalue = [0, 0, 0 ... 0, 0, 0]\nclass = Crypt Killer", fillcolor="#ffffff"] ;
565 -> 566 ;
567 [label="Publisher <= 29.0\ngini = 0.997\nsamples = 391\nvalue = [0, 0, 0 ... 0, 0, 0]\nclass = Crypt Killer", fillcolor="#ffffff"] ;
566 -> 567 ;
568 [label="Publisher <= 27.5\ngini = 0.625\nsamples = 4\nvalue = [0, 0, 0 ... 0, 0, 0]\nclass = Steins;Gate: Senkei Kousoku no Phonogram", fillcolor="#f6d2bd"] ;
567 -> 568 ;
569 [label="Genre <= 2.5\ngini = 0.5\nsamples = 2\nvalue = [0, 0, 0 ... 0, 0, 0]\nclass = Drakensang: The Dark Eye", fillcolor="#ffffff"] ;
568 -> 569 ;
570 [label="gini = 0.0\nsamples = 1\nvalue = [0, 0, 0 ... 0, 0, 0]\nclass = Drakensang: The Dark Eye", fillcolor="#39e541"] ;
569 -> 570 ;
571 [label="gini = 0.0\nsamples = 1\nvalue = [0, 0, 0 ... 0, 0, 0]\nclass = Petz Dogz 2", fillcolor="#e539da"] ;
569 -> 571 ;
572 [label="gini = 0.0\nsamples = 2\nvalue = [0, 0, 0 ... 0, 0, 0]\nclass = Steins;Gate: Senkei Kousoku no Phonogram", fillcolor="#e57839"] ;
568 -> 572 ;
573 [label="Publisher <= 56.0\ngini = 0.997\nsamples = 387\nvalue = [0, 0, 0 ... 0, 0, 0]\nclass = Crypt Killer", fillcolor="#ffffff"] ;
567 -> 573 ;
574 [label="Publisher <= 54.5\ngini = 0.991\nsamples = 139\nvalue = [0, 0, 0 ... 0, 0, 0]\nclass = Crypt Killer", fillcolor="#ffffff"] ;
573 -> 574 ;
575 [label="Publisher <= 52.5\ngini = 0.99\nsamples = 135\nvalue = [0, 0, 0 ... 0, 0, 0]\nclass = Crypt Killer", fillcolor="#ffffff"] ;
574 -> 575 ;
576 [label="Publisher <= 38.0\ngini = 0.984\nsamples = 73\nvalue = [0, 0, 0 ... 0, 0, 0]\nclass = Battle of Giants: Dinosaurs", fillcolor="#ffffff"] ;
575 -> 576 ;
577 [label="Publisher <= 36.0\ngini = 0.976\nsamples = 48\nvalue = [0, 0, 0 ... 0, 0, 0]\nclass = Saint Seiya: The Hades", fillcolor="#ffffff"] ;
576 -> 577 ;
578 [label="Publisher <= 31.5\ngini = 0.969\nsamples = 32\nvalue = [0, 0, 0 ... 0, 0, 0]\nclass = Aegis of Earth: Protonovus Assault", fillcolor="#ffffff"] ;
577 -> 578 ;
579 [label="Genre <= 2.0\ngini = 0.966\nsamples = 29\nvalue = [0, 0, 0 ... 0, 0, 0]\nclass = Aegis of Earth: Protonovus Assault", fillcolor="#ffffff"] ;
578 -> 579 ;
580 [label="gini = 0.96\nsamples = 25\nvalue = [0, 0, 0 ... 0, 0, 0]\nclass = Aegis of Earth: Protonovus Assault", fillcolor="#ffffff"] ;
579 -> 580 ;
581 [label="gini = 0.75\nsamples = 4\nvalue = [0, 0, 0 ... 0, 0, 0]\nclass = Derby Tsuku 5: Derby Uma o Tsukurou!", fillcolor="#ffffff"] ;
579 -> 581 ;
582 [label="Genre <= 2.5\ngini = 0.667\nsamples = 3\nvalue = [0, 0, 0 ... 0, 0, 0]\nclass = Batman: Arkham Origins", fillcolor="#ffffff"] ;
578 -> 582 ;
583 [label="gini = 0.0\nsamples = 1\nvalue = [0, 0, 0 ... 0, 0, 0]\nclass = Batman: Arkham Origins", fillcolor="#e5cb39"] ;
582 -> 583 ;
584 [label="gini = 0.5\nsamples = 2\nvalue = [0, 0, 0 ... 0, 0, 0]\nclass = Mitsukete! Keroro Gunsou: Machigai Sagashi Daisakusen de Arimasu!", fillcolor="#ffffff"] ;
582 -> 584 ;
585 [label="Genre <= 2.5\ngini = 0.906\nsamples = 16\nvalue = [0, 0, 0 ... 0, 0, 0]\nclass = Saint Seiya: The Hades", fillcolor="#ffffff"] ;
577 -> 585 ;
586 [label="Genre <= 1.5\ngini = 0.875\nsamples = 12\nvalue = [0, 0, 0 ... 0, 0, 0]\nclass = Saint Seiya: The Hades", fillcolor="#ffffff"] ;
585 -> 586 ;
587 [label="gini = 0.86\nsamples = 11\nvalue = [0, 0, 0 ... 0, 0, 0]\nclass = Saint Seiya: The Hades", fillcolor="#ffffff"] ;
586 -> 587 ;
588 [label="gini = 0.0\nsamples = 1\nvalue = [0, 0, 0 ... 0, 0, 0]\nclass = America's Army: Rise of a Soldier", fillcolor="#e5a339"] ;
586 -> 588 ;
589 [label="gini = 0.625\nsamples = 4\nvalue = [0, 0, 0 ... 0, 0, 0]\nclass = Shinseiki Evangelion: Koutetsu no Girlfriend 2nd Portable", fillcolor="#f6bdbd"] ;
585 -> 589 ;
590 [label="Publisher <= 39.5\ngini = 0.95\nsamples = 25\nvalue = [0, 0, 0 ... 0, 0, 0]\nclass = Battle of Giants: Dinosaurs", fillcolor="#ffffff"] ;
576 -> 590 ;
591 [label="Genre <= 1.5\ngini = 0.86\nsamples = 11\nvalue = [0, 0, 0 ... 0, 0, 0]\nclass = Battle of Giants: Dinosaurs", fillcolor="#ffffff"] ;
590 -> 591 ;
592 [label="gini = 0.812\nsamples = 8\nvalue = [0, 0, 0 ... 0, 0, 0]\nclass = Sports Illustrated for Kids: Baseball", fillcolor="#ffffff"] ;
591 -> 592 ;
593 [label="gini = 0.444\nsamples = 3\nvalue = [0, 0, 0 ... 0, 0, 0]\nclass = Battle of Giants: Dinosaurs", fillcolor="#f2e69c"] ;
591 -> 593 ;
594 [label="Genre <= 1.5\ngini = 0.929\nsamples = 14\nvalue = [0, 0, 0 ... 0, 0, 0]\nclass = Dance Dance Revolution Universe 3", fillcolor="#ffffff"] ;
590 -> 594 ;
595 [label="Publisher <= 45.5\ngini = 0.8\nsamples = 5\nvalue = [0, 0, 0 ... 0, 0, 0]\nclass = Dance Dance Revolution Universe 3", fillcolor="#ffffff"] ;
594 -> 595 ;
596 [label="gini = 0.0\nsamples = 1\nvalue = [0, 0, 0 ... 0, 0, 0]\nclass = Star Ocean", fillcolor="#e56d39"] ;
595 -> 596 ;
597 [label="Publisher <= 50.5\ngini = 0.75\nsamples = 4\nvalue = [0, 0, 0 ... 0, 0, 0]\nclass = Dance Dance Revolution Universe 3", fillcolor="#ffffff"] ;
595 -> 597 ;
598 [label="gini = 0.0\nsamples = 1\nvalue = [0, 0, 0 ... 0, 0, 0]\nclass = Disney's Kim Possible: Kimmunicator", fillcolor="#50e539"] ;
597 -> 598 ;
599 [label="Publisher <= 51.5\ngini = 0.667\nsamples = 3\nvalue = [0, 0, 0 ... 0, 0, 0]\nclass = Dance Dance Revolution Universe 3", fillcolor="#ffffff"] ;
597 -> 599 ;
600 [label="gini = 0.0\nsamples = 1\nvalue = [0, 0, 0 ... 0, 0, 0]\nclass = Disney's Treasure Planet", fillcolor="#4de539"] ;
599 -> 600 ;
601 [label="gini = 0.5\nsamples = 2\nvalue = [0, 0, 0 ... 0, 0, 0]\nclass = Dance Dance Revolution Universe 3", fillcolor="#ffffff"] ;
599 -> 601 ;
602 [label="Publisher <= 41.0\ngini = 0.889\nsamples = 9\nvalue = [0, 0, 0 ... 0, 0, 0]\nclass = Fatal Fury: Battle Archives Volume 2", fillcolor="#ffffff"] ;
594 -> 602 ;
603 [label="gini = 0.0\nsamples = 1\nvalue = [0, 0, 0 ... 0, 0, 0]\nclass = KimiKiss", fillcolor="#397be5"] ;
602 -> 603 ;
604 [label="Publisher <= 43.0\ngini = 0.875\nsamples = 8\nvalue = [0, 0, 0 ... 0, 0, 0]\nclass = Fatal Fury: Battle Archives Volume 2", fillcolor="#ffffff"] ;
602 -> 604 ;
605 [label="gini = 0.0\nsamples = 1\nvalue = [0, 0, 0 ... 0, 0, 0]\nclass = Rapala for Kinect", fillcolor="#e53998"] ;
604 -> 605 ;
606 [label="Publisher <= 45.5\ngini = 0.857\nsamples = 7\nvalue = [0, 0, 0 ... 0, 0, 0]\nclass = Fatal Fury: Battle Archives Volume 2", fillcolor="#ffffff"] ;
604 -> 606 ;
607 [label="gini = 0.5\nsamples = 2\nvalue = [0, 0, 0 ... 0, 0, 0]\nclass = Mechanic Master", fillcolor="#ffffff"] ;
606 -> 607 ;
608 [label="Publisher <= 48.5\ngini = 0.8\nsamples = 5\nvalue = [0, 0, 0 ... 0, 0, 0]\nclass = Fatal Fury: Battle Archives Volume 2", fillcolor="#ffffff"] ;
606 -> 608 ;
609 [label="gini = 0.75\nsamples = 4\nvalue = [0, 0, 0 ... 0, 0, 0]\nclass = Johnny Bazookatone", fillcolor="#ffffff"] ;
608 -> 609 ;
610 [label="gini = 0.0\nsamples = 1\nvalue = [0, 0, 0 ... 0, 0, 0]\nclass = Fatal Fury: Battle Archives Volume 2", fillcolor="#39e581"] ;
608 -> 610 ;
611 [label="Genre <= 1.5\ngini = 0.977\nsamples = 62\nvalue = [0, 0, 0 ... 0, 0, 0]\nclass = Crypt Killer", fillcolor="#ffffff"] ;
575 -> 611 ;
612 [label="Publisher <= 53.5\ngini = 0.898\nsamples = 15\nvalue = [0, 0, 0 ... 0, 0, 0]\nclass = Gauntlet: Seven Sorrows", fillcolor="#f0fdf9"] ;
611 -> 612 ;
613 [label="gini = 0.888\nsamples = 14\nvalue = [0, 0, 0 ... 0, 0, 0]\nclass = Gauntlet: Seven Sorrows", fillcolor="#eefdf8"] ;
612 -> 613 ;
614 [label="gini = 0.0\nsamples = 1\nvalue = [0, 0, 0 ... 0, 0, 0]\nclass = Escape The Museum", fillcolor="#39e561"] ;
612 -> 614 ;
615 [label="Genre <= 2.5\ngini = 0.971\nsamples = 47\nvalue = [0, 0, 0 ... 0, 0, 0]\nclass = Crypt Killer", fillcolor="#fcfefb"] ;
611 -> 615 ;
616 [label="gini = 0.953\nsamples = 32\nvalue = [0, 0, 0 ... 0, 0, 0]\nclass = Crypt Killer", fillcolor="#fbfef8"] ;
615 -> 616 ;
617 [label="gini = 0.924\nsamples = 15\nvalue = [0, 0, 0 ... 0, 0, 0]\nclass = Are You Alice?", fillcolor="#fdf9f1"] ;
615 -> 617 ;
618 [label="gini = 0.625\nsamples = 4\nvalue = [0, 0, 0 ... 0, 0, 0]\nclass = Mega Man X7", fillcolor="#c6bdf6"] ;
574 -> 618 ;
619 [label="Publisher <= 59.0\ngini = 0.995\nsamples = 248\nvalue = [0, 0, 0 ... 0, 0, 0]\nclass = Fist of the North Star: Ken's Rage", fillcolor="#ffffff"] ;
573 -> 619 ;
620 [label="Genre <= 2.0\ngini = 0.844\nsamples = 8\nvalue = [0, 0, 0 ... 0, 0, 0]\nclass = S.T.A.L.K.E.R.: Call of Pripyat", fillcolor="#fbe3ea"] ;
619 -> 620 ;
621 [label="Publisher <= 57.5\ngini = 0.444\nsamples = 3\nvalue = [0, 0, 0 ... 0, 0, 0]\nclass = S.T.A.L.K.E.R.: Call of Pripyat", fillcolor="#f29cb6"] ;
620 -> 621 ;
622 [label="gini = 0.0\nsamples = 1\nvalue = [0, 0, 0 ... 0, 0, 0]\nclass = Castlevania: Portrait of Ruin", fillcolor="#b4e539"] ;
621 -> 622 ;
623 [label="gini = 0.0\nsamples = 2\nvalue = [0, 0, 0 ... 0, 0, 0]\nclass = S.T.A.L.K.E.R.: Call of Pripyat", fillcolor="#e5396d"] ;
621 -> 623 ;
624 [label="Publisher <= 57.5\ngini = 0.8\nsamples = 5\nvalue = [0, 0, 0 ... 0, 0, 0]\nclass = 300: March to Glory", fillcolor="#ffffff"] ;
620 -> 624 ;
625 [label="gini = 0.667\nsamples = 3\nvalue = [0, 0, 0 ... 0, 0, 0]\nclass = Dragonseeds", fillcolor="#ffffff"] ;
624 -> 625 ;
626 [label="gini = 0.5\nsamples = 2\nvalue = [0, 0, 0 ... 0, 0, 0]\nclass = 300: March to Glory", fillcolor="#ffffff"] ;
624 -> 626 ;
627 [label="Genre <= 2.5\ngini = 0.995\nsamples = 240\nvalue = [0, 0, 0 ... 0, 0, 0]\nclass = Fist of the North Star: Ken's Rage", fillcolor="#ffffff"] ;
619 -> 627 ;
628 [label="Genre <= 1.5\ngini = 0.993\nsamples = 168\nvalue = [0, 0, 0 ... 0, 0, 0]\nclass = Fist of the North Star: Ken's Rage", fillcolor="#fefffe"] ;
627 -> 628 ;
629 [label="Publisher <= 85.5\ngini = 0.99\nsamples = 109\nvalue = [0, 0, 0 ... 0, 0, 0]\nclass = Fist of the North Star: Ken's Rage", fillcolor="#fdfffe"] ;
628 -> 629 ;
630 [label="Publisher <= 83.5\ngini = 0.967\nsamples = 35\nvalue = [0, 0, 0 ... 0, 0, 0]\nclass = Fist of the North Star: Ken's Rage", fillcolor="#f3fdf9"] ;
629 -> 630 ;
631 [label="Publisher <= 61.5\ngini = 0.944\nsamples = 18\nvalue = [0, 0, 0 ... 0, 0, 0]\nclass = Blade Arcus from Shining EX", fillcolor="#ffffff"] ;
630 -> 631 ;
632 [label="gini = 0.667\nsamples = 3\nvalue = [0, 0, 0 ... 0, 0, 0]\nclass = Blade Arcus from Shining EX", fillcolor="#ffffff"] ;
631 -> 632 ;
633 [label="Publisher <= 67.5\ngini = 0.933\nsamples = 15\nvalue = [0, 0, 0 ... 0, 0, 0]\nclass = Brothers in Arms: Hell's Highway", fillcolor="#ffffff"] ;
631 -> 633 ;
634 [label="gini = 0.75\nsamples = 4\nvalue = [0, 0, 0 ... 0, 0, 0]\nclass = Harry Potter and the Order of the Phoenix", fillcolor="#ffffff"] ;
633 -> 634 ;
635 [label="Publisher <= 75.0\ngini = 0.909\nsamples = 11\nvalue = [0, 0, 0 ... 0, 0, 0]\nclass = Brothers in Arms: Hell's Highway", fillcolor="#ffffff"] ;
633 -> 635 ;
636 [label="gini = 0.5\nsamples = 2\nvalue = [0, 0, 0 ... 0, 0, 0]\nclass = Brothers in Arms: Hell's Highway", fillcolor="#ffffff"] ;
635 -> 636 ;
637 [label="Publisher <= 78.5\ngini = 0.889\nsamples = 9\nvalue = [0, 0, 0 ... 0, 0, 0]\nclass = Crazy Taxi", fillcolor="#ffffff"] ;
635 -> 637 ;
638 [label="gini = 0.857\nsamples = 7\nvalue = [0, 0, 0 ... 0, 0, 0]\nclass = Gundam: The Battle Master", fillcolor="#ffffff"] ;
637 -> 638 ;
639 [label="Publisher <= 80.5\ngini = 0.5\nsamples = 2\nvalue = [0, 0, 0 ... 0, 0, 0]\nclass = Crazy Taxi", fillcolor="#ffffff"] ;
637 -> 639 ;
640 [label="gini = 0.0\nsamples = 1\nvalue = [0, 0, 0 ... 0, 0, 0]\nclass = Crazy Taxi", fillcolor="#8ce539"] ;
639 -> 640 ;
641 [label="gini = 0.0\nsamples = 1\nvalue = [0, 0, 0 ... 0, 0, 0]\nclass = Galleon: Islands of Mystery", fillcolor="#39e5ac"] ;
639 -> 641 ;
642 [label="gini = 0.92\nsamples = 17\nvalue = [0, 0, 0 ... 0, 0, 0]\nclass = Fist of the North Star: Ken's Rage", fillcolor="#e6fcf1"] ;
630 -> 642 ;
643 [label="Publisher <= 87.5\ngini = 0.985\nsamples = 74\nvalue = [0, 0, 0 ... 0, 0, 0]\nclass = Family Jockey", fillcolor="#ffffff"] ;
629 -> 643 ;
644 [label="Publisher <= 86.5\ngini = 0.864\nsamples = 9\nvalue = [0, 0, 0 ... 0, 0, 0]\nclass = Hidden Mysteries: Vampire Secrets", fillcolor="#e6fafc"] ;
643 -> 644 ;
645 [label="gini = 0.0\nsamples = 1\nvalue = [0, 0, 0 ... 0, 0, 0]\nclass = Gekido Advance: Kintaro's Revenge", fillcolor="#39e5b1"] ;
644 -> 645 ;
646 [label="gini = 0.844\nsamples = 8\nvalue = [0, 0, 0 ... 0, 0, 0]\nclass = Hidden Mysteries: Vampire Secrets", fillcolor="#e3fafb"] ;
644 -> 646 ;
647 [label="Publisher <= 93.0\ngini = 0.984\nsamples = 65\nvalue = [0, 0, 0 ... 0, 0, 0]\nclass = Family Jockey", fillcolor="#ffffff"] ;
643 -> 647 ;
648 [label="Publisher <= 90.5\ngini = 0.88\nsamples = 10\nvalue = [0, 0, 0 ... 0, 0, 0]\nclass = New Super Luigi U", fillcolor="#f8e9fc"] ;
647 -> 648 ;
649 [label="Publisher <= 89.0\ngini = 0.833\nsamples = 6\nvalue = [0, 0, 0 ... 0, 0, 0]\nclass = Billy Hatcher and the Giant Egg", fillcolor="#ffffff"] ;
648 -> 649 ;
650 [label="gini = 0.8\nsamples = 5\nvalue = [0, 0, 0 ... 0, 0, 0]\nclass = Cabela's Big Game Hunter 2005 Adventures", fillcolor="#ffffff"] ;
649 -> 650 ;
651 [label="gini = 0.0\nsamples = 1\nvalue = [0, 0, 0 ... 0, 0, 0]\nclass = Billy Hatcher and the Giant Egg", fillcolor="#e5da39"] ;
649 -> 651 ;
652 [label="gini = 0.625\nsamples = 4\nvalue = [0, 0, 0 ... 0, 0, 0]\nclass = New Super Luigi U", fillcolor="#eabdf6"] ;
648 -> 652 ;
653 [label="Publisher <= 111.5\ngini = 0.981\nsamples = 55\nvalue = [0, 0, 0 ... 0, 0, 0]\nclass = Family Jockey", fillcolor="#fbfffc"] ;
647 -> 653 ;
